{"learner":{"attributes":{"best_iteration":"199","best_score":"0.8217867715735184"},"feature_names":["n_logical_qubits","n_gates","n_2q_gates","depth","interaction_density","max_interaction_degree","mean_interaction_weight","max_interaction_weight","layout_mean_t1","layout_mean_t2","layout_mean_readout_error","layout_mean_gate_error","layout_max_gate_error","layout_subgraph_density","layout_boundary_edges","layout_max_shortest_path","layout_region_mean_error"],"feature_types":[],"gradient_booster":{"model":{"cats":{"enc":[],"feature_segments":[],"sorted_idx":[]},"gbtree_model_param":{"num_parallel_tree":"1","num_trees":"200"},"iteration_indptr":[0,1,2,3,4,5,6,7,8,9,10,11,12,13,14,15,16,17,18,19,20,21,22,23,24,25,26,27,28,29,30,31,32,33,34,35,36,37,38,39,40,41,42,43,44,45,46,47,48,49,50,51,52,53,54,55,56,57,58,59,60,61,62,63,64,65,66,67,68,69,70,71,72,73,74,75,76,77,78,79,80,81,82,83,84,85,86,87,88,89,90,91,92,93,94,95,96,97,98,99,100,101,102,103,104,105,106,107,108,109,110,111,112,113,114,115,116,117,118,119,120,121,122,123,124,125,126,127,128,129,130,131,132,133,134,135,136,137,138,139,140,141,142,143,144,145,146,147,148,149,150,151,152,153,154,155,156,157,158,159,160,161,162,163,164,165,166,167,168,169,170,171,172,173,174,175,176,177,178,179,180,181,182,183,184,185,186,187,188,189,190,191,192,193,194,195,196,197,198,199,200],"tree_info":[0,0,0,0,0,0,0,0,0,0,0,0,0,0,0,0,0,0,0,0,0,0,0,0,0,0,0,0,0,0,0,0,0,0,0,0,0,0,0,0,0,0,0,0,0,0,0,0,0,0,0,0,0,0,0,0,0,0,0,0,0,0,0,0,0,0,0,0,0,0,0,0,0,0,0,0,0,0,0,0,0,0,0,0,0,0,0,0,0,0,0,0,0,0,0,0,0,0,0,0,0,0,0,0,0,0,0,0,0,0,0,0,0,0,0,0,0,0,0,0,0,0,0,0,0,0,0,0,0,0,0,0,0,0,0,0,0,0,0,0,0,0,0,0,0,0,0,0,0,0,0,0,0,0,0,0,0,0,0,0,0,0,0,0,0,0,0,0,0,0,0,0,0,0,0,0,0,0,0,0,0,0,0,0,0,0,0,0,0,0,0,0,0,0,0,0,0,0,0,0],"trees":[{"base_weights":[5.670318E-2,-5.2022915E0,9.807442E1,-2.0938608E1,1.0415359E1,9.227748E0,1.2621955E1,-2.316121E1,-3.3524573E0,-6.875519E0,1.9181818E1,-2.6481207E1,-1.777222E1,-1.9105009E0,-3.8716683E0,-1.2229147E1,4.1189756E0,1.1643067E1,2.6885056E1,-2.8413134E1,-2.3556955E1,-1.610168E1,-1.8573519E1,-4.703533E0,-4.9751475E-1,-2.0993571E0,-4.0301776E0,-1.2531055E1,-9.572118E0,3.0026028E0,8.825223E-1,-5.474748E0,2.014689E1,1.3925566E1,3.3196594E1,-2.9578896E0,-2.67875E0,-2.4391696E0,-2.2684882E0,-1.8019184E0,-1.5065969E0,-1.830345E0,-1.9619089E0,-1.6659953E-1,-5.5440223E-1,-2.0079665E-1,1.4001176E-1,-4.1967487E-1,-9.721184E-3,-4.078403E-1,2.1736193E-1,-1.4041058E0,-1.2146271E0,-6.77903E-1,-1.0015501E0,2.1542005E-1,3.311127E-1,-6.453445E-1,8.878354E-2,2.7642252E0,1.2385819E0,1.5788101E0,1.2071981E0,3.0861356E0,3.518235E0],"categories":[],"categories_nodes":[],"categories_segments":[],"categories_sizes":[],"default_left":[0,0,0,0,0,0,0,0,0,0,0,0,0,0,0,0,0,0,0,0,0,0,0,0,0,0,0,0,0,0,0,0,0,0,0,0,0,0,0,0,0,0,0,0,0,0,0,0,0,0,0,0,0,0,0,0,0,0,0,0,0,0,0,0,0],"id":0,"left_children":[1,3,5,7,9,-1,-1,11,13,15,17,19,21,23,25,27,29,31,33,35,37,39,41,43,45,47,49,51,53,55,-1,57,59,61,63,-1,-1,-1,-1,-1,-1,-1,-1,-1,-1,-1,-1,-1,-1,-1,-1,-1,-1,-1,-1,-1,-1,-1,-1,-1,-1,-1,-1,-1,-1],"loss_changes":[6.2661045E6,2.8356005E6,8.93465E4,2.2455525E5,8.779305E5,0E0,0E0,9.081125E4,4.7625E2,1.1476936E5,2.228605E5,1.715475E4,2.3085E3,6.8040717E2,1.2469922E2,9.3171875E2,3.3307607E3,2.830923E5,1.5494712E5,2.799E3,3.64625E2,9.975625E2,1.084375E1,1.3883862E2,3.3530008E2,1.7176265E2,1.3870801E2,5.115625E2,1.0300488E2,1.2845508E2,0E0,4.0283965E3,7.522306E4,1.9636797E3,4.835875E3,0E0,0E0,0E0,0E0,0E0,0E0,0E0,0E0,0E0,0E0,0E0,0E0,0E0,0E0,0E0,0E0,0E0,0E0,0E0,0E0,0E0,0E0,0E0,0E0,0E0,0E0,0E0,0E0,0E0,0E0],"parents":[2147483647,0,0,1,1,2,2,3,3,4,4,7,7,8,8,9,9,10,10,11,11,12,12,13,13,14,14,15,15,16,16,17,17,18,18,19,19,20,20,21,21,22,22,23,23,24,24,25,25,26,26,27,27,28,28,29,29,31,31,32,32,33,33,34,34],"right_children":[2,4,6,8,10,-1,-1,12,14,16,18,20,22,24,26,28,30,32,34,36,38,40,42,44,46,48,50,52,54,56,-1,58,60,62,64,-1,-1,-1,-1,-1,-1,-1,-1,-1,-1,-1,-1,-1,-1,-1,-1,-1,-1,-1,-1,-1,-1,-1,-1,-1,-1,-1,-1,-1,-1],"split_conditions":[9.2E1,9E0,6E0,8E0,6E0,9.227748E0,1.2621955E1,5E0,1.7387817E-2,2.4E1,1E1,5E0,5E0,4E0,4E0,4E0,4E0,3.2E1,1.2E1,2E-2,5E0,3E0,5E0,6E0,6E0,1.6198189E2,6E0,3E0,1.2926521E-2,4E0,8.825223E-1,5E0,8E0,6E0,7E0,-2.9578896E0,-2.67875E0,-2.4391696E0,-2.2684882E0,-1.8019184E0,-1.5065969E0,-1.830345E0,-1.9619089E0,-1.6659953E-1,-5.5440223E-1,-2.0079665E-1,1.4001176E-1,-4.1967487E-1,-9.721184E-3,-4.078403E-1,2.1736193E-1,-1.4041058E0,-1.2146271E0,-6.77903E-1,-1.0015501E0,2.1542005E-1,3.311127E-1,-6.453445E-1,8.878354E-2,2.7642252E0,1.2385819E0,1.5788101E0,1.2071981E0,3.0861356E0,3.518235E0],"split_indices":[1,2,15,0,0,0,0,2,11,1,0,0,0,14,14,15,15,1,1,12,1,15,14,15,15,8,15,15,11,14,0,15,0,14,15,0,0,0,0,0,0,0,0,0,0,0,0,0,0,0,0,0,0,0,0,0,0,0,0,0,0,0,0,0,0],"split_type":[0,0,0,0,0,0,0,0,0,0,0,0,0,0,0,0,0,0,0,0,0,0,0,0,0,0,0,0,0,0,0,0,0,0,0,0,0,0,0,0,0,0,0,0,0,0,0,0,0,0,0,0,0,0,0,0,0,0,0,0,0,0,0,0,0],"sum_hessian":[1.2154E4,1.1536E4,6.18E2,5.746E3,5.79E3,5.16E2,1.02E2,5.101E3,6.45E2,1.948E3,3.842E3,3.154E3,1.947E3,1.72E2,4.73E2,1.31E3,6.38E2,1.943E3,1.899E3,1.894E3,1.26E3,6.38E2,1.309E3,5.7E1,1.15E2,4E1,4.33E2,1.173E3,1.37E2,5.17E2,1.21E2,6.45E2,1.298E3,6.23E2,1.276E3,1.093E3,8.01E2,6.3E2,6.3E2,2.18E2,4.2E2,1.055E3,2.54E2,1.3E1,4.4E1,6.4E1,5.1E1,1.9E1,2.1E1,4.3E2,3E0,2.31E2,9.42E2,2.1E1,1.16E2,1.4E2,3.77E2,5.59E2,8.6E1,6.59E2,6.39E2,3.07E2,3.16E2,5.94E2,6.82E2],"tree_param":{"num_deleted":"0","num_feature":"17","num_nodes":"65","size_leaf_vector":"1"}},{"base_weights":[2.04993E-1,-4.7257895E0,8.850843E1,-1.8912903E1,9.4474325E0,8.321852E0,1.1352824E1,-2.0865627E1,-3.052213E0,-6.127043E0,1.721005E1,-2.384804E1,-1.599446E1,-1.4793705E0,-3.3753316E0,-1.1020471E1,3.676979E0,1.0423617E1,2.4194279E1,-2.5582617E1,-2.121106E1,-1.4510627E1,-1.6714007E0,-2.2045853E0,1.894325E0,-3.2764785E0,-6.3214964E-1,-1.1293269E1,-8.592977E0,2.6795864E0,7.9493916E-1,-4.93554E0,1.8165873E1,1.2427283E1,2.9816687E1,-2.6631649E0,-2.4118383E0,-2.194063E0,-2.0444639E0,-1.6227478E0,-1.3563104E0,5.8186114E-1,-2.544224E-1,-7.648905E-2,5.2294654E-1,-3.401998E-1,1.7935804E-1,-1.2643702E0,-1.0935267E0,-6.1446375E-1,-9.0190375E-1,3.080958E-1,2.3243852E-1,-5.7762593E-1,7.998537E-2,2.4899056E0,1.1054766E0,1.1801625E0,1.5543922E0,2.7841032E0,3.1645613E0],"categories":[],"categories_nodes":[],"categories_segments":[],"categories_sizes":[],"default_left":[0,0,0,0,0,0,0,0,0,0,0,0,0,0,0,0,0,0,0,0,0,0,0,0,0,0,0,0,0,0,0,0,0,0,0,0,0,0,0,0,0,0,0,0,0,0,0,0,0,0,0,0,0,0,0,0,0,0,0,0,0],"id":1,"left_children":[1,3,5,7,9,-1,-1,11,13,15,17,19,21,23,25,27,29,31,33,35,37,39,-1,41,43,45,-1,47,49,51,-1,53,55,57,59,-1,-1,-1,-1,-1,-1,-1,-1,-1,-1,-1,-1,-1,-1,-1,-1,-1,-1,-1,-1,-1,-1,-1,-1,-1,-1],"loss_changes":[5.3184555E6,2.3264395E6,7.6052E4,1.79014E5,6.9986706E5,0E0,0E0,7.4408E4,3.1772363E2,9.244089E4,1.8284612E5,1.405325E4,1.848E3,2.7330807E2,1.3247852E2,7.5390625E2,2.7144355E3,2.3328103E5,1.25529875E5,2.30675E3,2.626875E2,8.324219E2,0E0,2.6277768E2,1.8137708E2,3.3129834E2,0E0,4.186875E2,8.436328E1,6.725903E1,0E0,3.1774033E3,6.216078E4,1.0196719E3,3.769375E3,0E0,0E0,0E0,0E0,0E0,0E0,0E0,0E0,0E0,0E0,0E0,0E0,0E0,0E0,0E0,0E0,0E0,0E0,0E0,0E0,0E0,0E0,0E0,0E0,0E0,0E0],"parents":[2147483647,0,0,1,1,2,2,3,3,4,4,7,7,8,8,9,9,10,10,11,11,12,12,13,13,14,14,15,15,16,16,17,17,18,18,19,19,20,20,21,21,23,23,24,24,25,25,27,27,28,28,29,29,31,31,32,32,33,33,34,34],"right_children":[2,4,6,8,10,-1,-1,12,14,16,18,20,22,24,26,28,30,32,34,36,38,40,-1,42,44,46,-1,48,50,52,-1,54,56,58,60,-1,-1,-1,-1,-1,-1,-1,-1,-1,-1,-1,-1,-1,-1,-1,-1,-1,-1,-1,-1,-1,-1,-1,-1,-1,-1],"split_conditions":[9.2E1,9E0,6E0,8E0,6E0,8.321852E0,1.1352824E1,5E0,1.5241883E-2,2.4E1,1E1,5E0,5E0,1.7471472E2,7E0,4E0,4E0,3.2E1,1.2E1,2E-2,5E0,3E0,-1.6714007E0,5.7220623E1,2.4902344E-2,6E0,-6.3214964E-1,3E0,1.2926521E-2,1.4178183E2,7.9493916E-1,5E0,8E0,1.27265495E2,7E0,-2.6631649E0,-2.4118383E0,-2.194063E0,-2.0444639E0,-1.6227478E0,-1.3563104E0,5.8186114E-1,-2.544224E-1,-7.648905E-2,5.2294654E-1,-3.401998E-1,1.7935804E-1,-1.2643702E0,-1.0935267E0,-6.1446375E-1,-9.0190375E-1,3.080958E-1,2.3243852E-1,-5.7762593E-1,7.998537E-2,2.4899056E0,1.1054766E0,1.1801625E0,1.5543922E0,2.7841032E0,3.1645613E0],"split_indices":[1,2,15,0,0,0,0,2,11,1,0,0,0,8,15,15,15,1,1,12,1,15,0,9,10,15,0,15,11,8,0,15,0,9,15,0,0,0,0,0,0,0,0,0,0,0,0,0,0,0,0,0,0,0,0,0,0,0,0,0,0],"split_type":[0,0,0,0,0,0,0,0,0,0,0,0,0,0,0,0,0,0,0,0,0,0,0,0,0,0,0,0,0,0,0,0,0,0,0,0,0,0,0,0,0,0,0,0,0,0,0,0,0,0,0,0,0,0,0,0,0,0,0,0,0],"sum_hessian":[1.2213E4,1.1568E4,6.45E2,5.781E3,5.787E3,5.36E2,1.09E2,5.147E3,6.34E2,1.925E3,3.862E3,3.19E3,1.957E3,1.09E2,5.25E2,1.284E3,6.41E2,1.96E3,1.902E3,1.919E3,1.271E3,6.46E2,1.311E3,9E1,1.9E1,5.1E2,1.5E1,1.151E3,1.33E2,5.21E2,1.2E2,6.57E2,1.303E3,6.16E2,1.286E3,1.108E3,8.11E2,6.37E2,6.34E2,2.24E2,4.22E2,3E0,8.7E1,1.1E1,8E0,4.98E2,1.2E1,2.34E2,9.17E2,2.2E1,1.11E2,2.41E2,2.8E2,5.73E2,8.4E1,6.68E2,6.35E2,5.17E2,9.9E1,6.26E2,6.6E2],"tree_param":{"num_deleted":"0","num_feature":"17","num_nodes":"61","size_leaf_vector":"1"}},{"base_weights":[4.9842607E-2,-4.4130454E0,7.97927E1,-1.7012278E1,8.279258E0,7.486858E0,1.0226919E1,-1.8751194E1,-2.7305074E0,-1.2098092E0,1.8879568E1,-2.1464663E1,-1.4384499E1,-2.972227E0,-3.489695E-1,-5.4849405E0,1.9548004E1,1.5891375E1,2.8316196E1,-2.3029291E1,-1.9086527E1,-1.3091881E1,-1.5030189E1,-3.0861974E0,-4.689179E-1,4.321892E-1,-5.38288E-1,-8.544208E0,3.355643E0,2.8686401E1,1.8906076E1,9.947836E0,2.712171E1,2.8616216E0,1.4639403E0,-2.3955483E0,-2.1780658E0,-1.8399718E0,-1.9734749E0,-1.4615765E0,-1.2210338E0,-1.4799339E0,-1.5923734E0,-3.0087134E-1,-5.810146E-1,1.1070889E-1,-3.1012377E-1,-8.995569E-2,3.2269344E-1,-9.964778E-1,-5.2496547E-1,2.4918626E-1,7.1600175E-1,1.4563525E0,3.2058265E0,2.1538174E0,1.8087943E0,7.211938E-2,1.0591664E0,3.7263787E0,2.5442255E0],"categories":[],"categories_nodes":[],"categories_segments":[],"categories_sizes":[],"default_left":[0,0,0,0,0,0,0,0,0,0,0,0,0,0,0,0,0,0,0,0,0,0,0,0,0,0,0,0,0,0,0,0,0,0,0,0,0,0,0,0,0,0,0,0,0,0,0,0,0,0,0,0,0,0,0,0,0,0,0,0,0],"id":2,"left_children":[1,3,5,7,9,-1,-1,11,13,15,17,19,21,23,25,27,29,31,33,35,37,39,41,43,45,47,-1,49,51,53,55,57,59,-1,-1,-1,-1,-1,-1,-1,-1,-1,-1,-1,-1,-1,-1,-1,-1,-1,-1,-1,-1,-1,-1,-1,-1,-1,-1,-1,-1],"loss_changes":[4.3243365E6,1.8402629E6,6.361925E4,1.4336975E5,5.7668844E5,0E0,0E0,6.0689375E4,3.6048047E2,2.6864166E5,7.59115E4,1.136675E4,1.4524688E3,1.611753E2,2.343311E2,6.791339E4,2.4904688E3,1.3716416E5,2.2482188E3,1.686E3,2.0009375E2,7.1621094E2,3.475E1,9.754785E1,1.1129574E2,1.9644116E2,0E0,8.676156E3,2.1050083E3,1.0569727E3,6.5696875E2,7.9999844E3,1.11795625E4,0E0,0E0,0E0,0E0,0E0,0E0,0E0,0E0,0E0,0E0,0E0,0E0,0E0,0E0,0E0,0E0,0E0,0E0,0E0,0E0,0E0,0E0,0E0,0E0,0E0,0E0,0E0,0E0],"parents":[2147483647,0,0,1,1,2,2,3,3,4,4,7,7,8,8,9,9,10,10,11,11,12,12,13,13,14,14,15,15,16,16,17,17,18,18,19,19,20,20,21,21,22,22,23,23,24,24,25,25,27,27,28,28,29,29,30,30,31,31,32,32],"right_children":[2,4,6,8,10,-1,-1,12,14,16,18,20,22,24,26,28,30,32,34,36,38,40,42,44,46,48,-1,50,52,54,56,58,60,-1,-1,-1,-1,-1,-1,-1,-1,-1,-1,-1,-1,-1,-1,-1,-1,-1,-1,-1,-1,-1,-1,-1,-1,-1,-1,-1,-1],"split_conditions":[5.6E1,9E0,6E0,8E0,5E0,7.486858E0,1.0226919E1,5E0,1.7441533E2,3E1,1.2E1,5E0,5E0,1.4905748E2,7E0,1.6E1,3E0,2E1,1E1,2E-2,3E0,3E0,5E0,7E0,4E0,6E0,-5.38288E-1,6E0,4E0,1.2652745E2,4E0,8E0,8E0,2.8616216E0,1.4639403E0,-2.3955483E0,-2.1780658E0,-1.8399718E0,-1.9734749E0,-1.4615765E0,-1.2210338E0,-1.4799339E0,-1.5923734E0,-3.0087134E-1,-5.810146E-1,1.1070889E-1,-3.1012377E-1,-8.995569E-2,3.2269344E-1,-9.964778E-1,-5.2496547E-1,2.4918626E-1,7.1600175E-1,1.4563525E0,3.2058265E0,2.1538174E0,1.8087943E0,7.211938E-2,1.0591664E0,3.7263787E0,2.5442255E0],"split_indices":[2,2,15,0,15,0,0,2,8,2,0,0,0,9,15,2,14,2,15,12,5,15,14,15,14,15,0,0,15,9,14,0,0,0,0,0,0,0,0,0,0,0,0,0,0,0,0,0,0,0,0,0,0,0,0,0,0,0,0,0,0],"split_type":[0,0,0,0,0,0,0,0,0,0,0,0,0,0,0,0,0,0,0,0,0,0,0,0,0,0,0,0,0,0,0,0,0,0,0,0,0,0,0,0,0,0,0,0,0,0,0,0,0,0,0,0,0,0,0,0,0,0,0,0,0],"sum_hessian":[1.2149E4,1.1506E4,6.43E2,5.774E3,5.732E3,5.31E2,1.12E2,5.147E3,6.27E2,3.025E3,2.707E3,3.172E3,1.975E3,5.69E2,5.8E1,2.509E3,5.16E2,2.058E3,6.49E2,1.908E3,1.264E3,6.65E2,1.31E3,5.44E2,2.5E1,5.1E1,7E0,1.864E3,6.45E2,3.1E1,4.85E2,1.347E3,7.11E2,6.34E2,1.5E1,1.085E3,8.23E2,6.28E2,6.36E2,2.38E2,4.27E2,1.055E3,2.55E2,5.31E2,1.3E1,1.6E1,9E0,3.5E1,1.6E1,1.301E3,5.63E2,5.27E2,1.18E2,7E0,2.4E1,1.09E2,3.76E2,8.8E1,1.259E3,9.8E1,6.13E2],"tree_param":{"num_deleted":"0","num_feature":"17","num_nodes":"61","size_leaf_vector":"1"}},{"base_weights":[-8.4947504E-2,-3.9252174E0,7.162091E1,-1.5274138E1,7.556719E0,6.733964E0,9.193745E0,-1.691257E1,-2.434397E0,-9.159399E-1,1.7115473E1,-1.9335213E1,-1.2943769E1,-8.4536976E-1,-2.75821E0,-4.8939347E0,1.7478472E1,1.4499934E1,2.552881E1,-2.0723738E1,-1.720155E1,-1.1780121E1,-1.3533587E1,-3.401426E0,8.961591E-1,5.6655204E-1,-2.808608E0,-7.629089E0,3.0926695E0,2.6713455E1,1.6865952E1,9.0173E0,2.4449232E1,2.5802305E0,1.3266959E1,-2.2141976E0,-2.0007923E0,-1.7749048E0,-1.6616195E0,-1.3159837E0,-1.0992278E0,-1.330965E0,-1.4396333E0,-6.589873E-2,-3.96144E-1,-3.975738E-1,1.5204053E-1,-2.575086E-1,1.8320324E-1,-2.7306566E-1,-5.1859856E-1,-9.1814196E-1,-5.1208305E-1,2.2562595E-1,6.453474E-1,3.0628278E0,1.330577E0,1.8964802E0,1.6328382E0,6.498835E-2,9.6091604E-1,3.3585122E0,2.2933688E0,4.2011386E-1,1.5938805E0],"categories":[],"categories_nodes":[],"categories_segments":[],"categories_sizes":[],"default_left":[0,0,0,0,0,0,0,0,0,0,0,0,0,0,0,0,0,0,0,0,0,0,0,0,0,0,0,0,0,0,0,0,0,0,0,0,0,0,0,0,0,0,0,0,0,0,0,0,0,0,0,0,0,0,0,0,0,0,0,0,0,0,0,0,0],"id":3,"left_children":[1,3,5,7,9,-1,-1,11,13,15,17,19,21,23,25,27,29,31,33,35,37,39,41,43,45,47,49,51,53,55,57,59,61,-1,63,-1,-1,-1,-1,-1,-1,-1,-1,-1,-1,-1,-1,-1,-1,-1,-1,-1,-1,-1,-1,-1,-1,-1,-1,-1,-1,-1,-1,-1,-1],"loss_changes":[3.3531845E6,1.5062105E6,4.765025E4,1.22247125E5,4.65373E5,0E0,0E0,4.9315125E4,3.3675513E2,2.230433E5,5.9044438E4,9.121E3,1.18375E3,5.0606165E2,9.324756E1,5.4766145E4,2.6153438E3,1.1225825E5,1.800625E3,1.519375E3,1.11125E2,5.7928125E2,5.7984375E1,6.803638E1,2.1285065E2,4.0498768E1,8.572656E1,7.222422E3,1.7844863E3,1.2721074E3,2.66875E2,6.5853203E3,9.3649375E3,0E0,3.205984E2,0E0,0E0,0E0,0E0,0E0,0E0,0E0,0E0,0E0,0E0,0E0,0E0,0E0,0E0,0E0,0E0,0E0,0E0,0E0,0E0,0E0,0E0,0E0,0E0,0E0,0E0,0E0,0E0,0E0,0E0],"parents":[2147483647,0,0,1,1,2,2,3,3,4,4,7,7,8,8,9,9,10,10,11,11,12,12,13,13,14,14,15,15,16,16,17,17,18,18,19,19,20,20,21,21,22,22,23,23,24,24,25,25,26,26,27,27,28,28,29,29,30,30,31,31,32,32,34,34],"right_children":[2,4,6,8,10,-1,-1,12,14,16,18,20,22,24,26,28,30,32,34,36,38,40,42,44,46,48,50,52,54,56,58,60,62,-1,64,-1,-1,-1,-1,-1,-1,-1,-1,-1,-1,-1,-1,-1,-1,-1,-1,-1,-1,-1,-1,-1,-1,-1,-1,-1,-1,-1,-1,-1,-1],"split_conditions":[9.2E1,9E0,6E0,8E0,5E0,6.733964E0,9.193745E0,5E0,1.5241883E-2,4E1,1.2E1,5E0,5E0,4E0,2.217895E-3,3.2E1,3E0,3.5E1,1E1,4E0,5E0,3E0,5E0,6E0,1.2125651E-2,1.7409852E-2,7E0,4E0,4E0,2.1057129E-2,4E0,8E0,8E0,2.5802305E0,1.5700648E-2,-2.2141976E0,-2.0007923E0,-1.7749048E0,-1.6616195E0,-1.3159837E0,-1.0992278E0,-1.330965E0,-1.4396333E0,-6.589873E-2,-3.96144E-1,-3.975738E-1,1.5204053E-1,-2.575086E-1,1.8320324E-1,-2.7306566E-1,-5.1859856E-1,-9.1814196E-1,-5.1208305E-1,2.2562595E-1,6.453474E-1,3.0628278E0,1.330577E0,1.8964802E0,1.6328382E0,6.498835E-2,9.6091604E-1,3.3585122E0,2.2933688E0,4.2011386E-1,1.5938805E0],"split_indices":[1,2,15,0,15,0,0,2,11,1,0,0,0,14,16,1,14,1,15,0,1,15,14,15,10,11,15,15,15,10,14,0,0,0,11,0,0,0,0,0,0,0,0,0,0,0,0,0,0,0,0,0,0,0,0,0,0,0,0,0,0,0,0,0,0],"split_type":[0,0,0,0,0,0,0,0,0,0,0,0,0,0,0,0,0,0,0,0,0,0,0,0,0,0,0,0,0,0,0,0,0,0,0,0,0,0,0,0,0,0,0,0,0,0,0,0,0,0,0,0,0,0,0,0,0,0,0,0,0,0,0,0,0],"sum_hessian":[1.2175E4,1.1557E4,6.18E2,5.812E3,5.745E3,5.14E2,1.04E2,5.154E3,6.58E2,3.046E3,2.699E3,3.198E3,1.956E3,1.12E2,5.46E2,2.505E3,5.41E2,2.061E3,6.38E2,1.932E3,1.266E3,6.65E2,1.291E3,4.5E1,6.7E1,8E0,5.38E2,1.866E3,6.39E2,3.1E1,5.1E2,1.33E3,7.31E2,6.23E2,1.5E1,6.38E2,1.294E3,6.39E2,6.27E2,2.36E2,4.29E2,1.038E3,2.53E2,8E0,3.7E1,7E0,6E1,2E0,6E0,5.23E2,1.5E1,1.151E3,7.15E2,5.13E2,1.26E2,2.3E1,8E0,9.7E1,4.13E2,8.8E1,1.242E3,1.01E2,6.3E2,4E0,1.1E1],"tree_param":{"num_deleted":"0","num_feature":"17","num_nodes":"65","size_leaf_vector":"1"}},{"base_weights":[-7.744629E-2,-3.5123992E0,6.454133E1,-1.5856931E1,4.399368E0,6.0654936E0,8.315803E0,-1.7986006E1,-1.3043997E1,1.7626755E1,-4.9077094E-1,-1.9465748E0,-1.6859055E1,-1.2157467E1,-1.49E1,9.145828E0,2.1766685E1,-6.5337925E0,9.664417E0,-1.7230879E1,-1.3261222E0,-1.1957461E0,-1.296891E1,-1.4259285E0,-1.7635654E0,1.0731385E1,7.5513425E0,2.0091341E1,2.3227962E1,-2.9017925E0,-8.906278E0,5.3638816E0,1.820335E1,-1.6766624E0,-1.8513211E0,-1.432716E0,-1.1339607E0,7.545136E-1,1.1595516E0,6.7798537E-1,8.4037685E-1,2.1814334E0,1.9514531E0,2.3475459E0,1.2296588E0,-4.1869384E-1,-1.9156386E-1,-1.056774E0,-8.070602E-1,2.019912E-1,7.618403E-1,1.5860803E0,3.0262446E0],"categories":[],"categories_nodes":[],"categories_segments":[],"categories_sizes":[],"default_left":[0,0,0,0,0,0,0,0,0,0,0,0,0,0,0,0,0,0,0,0,0,0,0,0,0,0,0,0,0,0,0,0,0,0,0,0,0,0,0,0,0,0,0,0,0,0,0,0,0,0,0,0,0],"id":4,"left_children":[1,3,5,7,9,-1,-1,11,13,15,17,-1,19,21,23,25,27,29,31,33,-1,-1,35,-1,-1,37,39,41,43,45,47,49,51,-1,-1,-1,-1,-1,-1,-1,-1,-1,-1,-1,-1,-1,-1,-1,-1,-1,-1,-1,-1],"loss_changes":[2.6912995E6,1.1245106E6,3.923525E4,2.669775E4,4.538946E5,0E0,0E0,3.935875E3,3.0125938E3,6.630006E4,3.1451288E5,0E0,1.72325E3,5.8984375E1,8.405E2,1.494E3,2.647375E3,2.766014E4,7.01148E4,4.7484375E2,0E0,0E0,3.885703E2,0E0,0E0,7.6604297E2,1.4952148E2,1.70625E2,1.532125E3,1.6027822E3,2.6124531E3,9.581824E3,1.7599344E4,0E0,0E0,0E0,0E0,0E0,0E0,0E0,0E0,0E0,0E0,0E0,0E0,0E0,0E0,0E0,0E0,0E0,0E0,0E0,0E0],"parents":[2147483647,0,0,1,1,2,2,3,3,4,4,7,7,8,8,9,9,10,10,12,12,13,13,14,14,15,15,16,16,17,17,18,18,19,19,22,22,25,25,26,26,27,27,28,28,29,29,30,30,31,31,32,32],"right_children":[2,4,6,8,10,-1,-1,12,14,16,18,-1,20,22,24,26,28,30,32,34,-1,-1,36,-1,-1,38,40,42,44,46,48,50,52,-1,-1,-1,-1,-1,-1,-1,-1,-1,-1,-1,-1,-1,-1,-1,-1,-1,-1,-1,-1],"split_conditions":[9.2E1,8E0,6E0,5E0,2.5E-1,6.0654936E0,8.315803E0,2E-2,4E-1,1.2E1,3.2E1,-1.9465748E0,4E0,5E0,4E0,6E0,7E0,4E-1,4E1,2.0525476E-2,-1.3261222E0,-1.1957461E0,6E0,-1.4259285E0,-1.7635654E0,1.8707275E-2,7E0,1.6E1,1E1,5E0,2E1,4E0,5E0,-1.6766624E0,-1.8513211E0,-1.432716E0,-1.1339607E0,7.545136E-1,1.1595516E0,6.7798537E-1,8.4037685E-1,2.1814334E0,1.9514531E0,2.3475459E0,1.2296588E0,-4.1869384E-1,-1.9156386E-1,-1.056774E0,-8.070602E-1,2.019912E-1,7.618403E-1,1.5860803E0,3.0262446E0],"split_indices":[1,1,15,1,13,0,0,12,13,1,1,0,15,14,15,14,15,13,1,12,0,0,1,0,0,10,14,1,15,15,1,15,15,0,0,0,0,0,0,0,0,0,0,0,0,0,0,0,0,0,0,0,0],"split_type":[0,0,0,0,0,0,0,0,0,0,0,0,0,0,0,0,0,0,0,0,0,0,0,0,0,0,0,0,0,0,0,0,0,0,0,0,0,0,0,0,0,0,0,0,0,0,0,0,0,0,0,0,0],"sum_hessian":[1.2123E4,1.1512E4,6.11E2,4.496E3,7.016E3,5.09E2,1.02E2,2.556E3,1.94E3,1.893E3,5.123E3,1.098E3,1.458E3,1.318E3,6.22E2,6.22E2,1.271E3,3.212E3,1.911E3,1.318E3,1.4E2,1.07E3,2.48E2,5.09E2,1.13E2,3.09E2,3.13E2,5.99E2,6.72E2,1.27E3,1.942E3,1.272E3,6.39E2,9.78E2,3.4E2,1.31E2,1.17E2,6.8E1,2.41E2,1.69E2,1.44E2,1.41E2,4.58E2,6.56E2,1.6E1,5.5E2,7.2E2,6.46E2,1.296E3,5.13E2,7.59E2,5.37E2,1.02E2],"tree_param":{"num_deleted":"0","num_feature":"17","num_nodes":"53","size_leaf_vector":"1"}},{"base_weights":[9.203414E-2,-3.043665E0,5.8355686E1,-1.2353919E1,6.28316E0,5.4793262E0,7.471731E1,-2.0360312E0,-1.36753025E1,1.1347666E1,-4.0669174E0,6.8773394E0,8.442511E0,3.8733227E0,-2.1052036E0,-1.5629942E1,-1.0489305E1,1.5858956E1,6.9562006E0,-7.256762E0,2.4411528E0,-3.04871E-1,5.2977147E0,-2.1723413E0,2.0167875E0,-1.6775742E1,-1.38881445E1,-1.096472E1,-9.510593E0,8.25689E0,1.9659477E1,-3.1858857E0,1.1975951E1,-8.6739725E-1,-6.9380646E0,1.7677864E0,5.0576794E-1,6.581406E-1,-1.2022181E-1,-2.077881E-1,-4.748547E-1,5.561624E-1,-8.033513E-2,-1.7516596E0,-1.5773305E0,-1.4414972E0,-1.3415645E0,-1.0776948E0,-1.1680988E0,-1.0793104E0,-8.841385E-1,1.2096804E0,7.5345176E-1,1.8078547E0,2.113573E0,-3.7539798E-1,7.7440016E-2,7.2841233E-1,1.6448786E0,-7.524659E-1,-6.0577214E-1,-9.135308E-2,1.8811749E-1],"categories":[],"categories_nodes":[],"categories_segments":[],"categories_sizes":[],"default_left":[0,0,0,0,0,0,0,0,0,0,0,0,0,0,0,0,0,0,0,0,0,0,0,0,0,0,0,0,0,0,0,0,0,0,0,0,0,0,0,0,0,0,0,0,0,0,0,0,0,0,0,0,0,0,0,0,0,0,0,0,0,0,0],"id":5,"left_children":[1,3,5,7,9,-1,11,13,15,17,19,-1,-1,21,23,25,27,29,31,33,35,-1,37,39,41,43,45,47,49,51,53,55,57,-1,59,61,-1,-1,-1,-1,-1,-1,-1,-1,-1,-1,-1,-1,-1,-1,-1,-1,-1,-1,-1,-1,-1,-1,-1,-1,-1,-1,-1],"loss_changes":[2.2358442E6,1.00849375E6,3.233525E4,7.921231E4,3.0417556E5,0E0,4.833125E2,2.7834766E2,3.192E4,7.707406E4,3.9606523E4,0E0,0E0,9.502868E1,1.8536987E2,6.1354375E3,8.08625E2,5.5338844E4,1.00637766E5,5.179453E2,1.0975205E3,0E0,6.631964E1,1.468501E2,1.1443417E2,1.149625E3,1.2325E2,5.0828125E1,4.6159375E2,1.689668E3,2.60525E3,1.4765356E3,2.762339E4,0E0,4.9664453E2,1.5403772E2,0E0,0E0,0E0,0E0,0E0,0E0,0E0,0E0,0E0,0E0,0E0,0E0,0E0,0E0,0E0,0E0,0E0,0E0,0E0,0E0,0E0,0E0,0E0,0E0,0E0,0E0,0E0],"parents":[2147483647,0,0,1,1,2,2,3,3,4,4,6,6,7,7,8,8,9,9,10,10,13,13,14,14,15,15,16,16,17,17,18,18,19,19,20,20,22,22,23,23,24,24,25,25,26,26,27,27,28,28,29,29,30,30,31,31,32,32,34,34,35,35],"right_children":[2,4,6,8,10,-1,12,14,16,18,20,-1,-1,22,24,26,28,30,32,34,36,-1,38,40,42,44,46,48,50,52,54,56,58,-1,60,62,-1,-1,-1,-1,-1,-1,-1,-1,-1,-1,-1,-1,-1,-1,-1,-1,-1,-1,-1,-1,-1,-1,-1,-1,-1,-1,-1],"split_conditions":[9.2E1,9E0,6E0,2.857143E-1,4E-1,5.4793262E0,7E0,1.2385154E-2,5E0,2.5E-1,2.4E1,6.8773394E0,8.442511E0,1.1149089E-2,1.932629E2,4E0,8E0,1.2E1,3.2E1,3E0,4E0,-3.04871E-1,4.1381836E-2,7E0,1.4646884E2,2E-2,9.763514E-3,5E0,3E0,4E0,7E0,5E0,3.5E1,-8.6739725E-1,2.2E1,1.0335286E-2,5.0576794E-1,6.581406E-1,-1.2022181E-1,-2.077881E-1,-4.748547E-1,5.561624E-1,-8.033513E-2,-1.7516596E0,-1.5773305E0,-1.4414972E0,-1.3415645E0,-1.0776948E0,-1.1680988E0,-1.0793104E0,-8.841385E-1,1.2096804E0,7.5345176E-1,1.8078547E0,2.113573E0,-3.7539798E-1,7.7440016E-2,7.2841233E-1,1.6448786E0,-7.524659E-1,-6.0577214E-1,-9.135308E-2,1.8811749E-1],"split_indices":[1,2,15,4,13,0,15,11,2,4,1,0,0,10,8,2,1,1,1,15,15,0,10,15,9,12,11,14,15,14,15,15,1,0,1,10,0,0,0,0,0,0,0,0,0,0,0,0,0,0,0,0,0,0,0,0,0,0,0,0,0,0,0],"split_type":[0,0,0,0,0,0,0,0,0,0,0,0,0,0,0,0,0,0,0,0,0,0,0,0,0,0,0,0,0,0,0,0,0,0,0,0,0,0,0,0,0,0,0,0,0,0,0,0,0,0,0,0,0,0,0,0,0,0,0,0,0,0,0],"sum_hessian":[1.2236E4,1.1612E4,6.24E2,5.811E3,5.801E3,5.16E2,1.08E2,6.6E2,5.151E3,3.895E3,1.906E3,7.2E1,3.6E1,7E0,6.53E2,3.19E3,1.961E3,1.92E3,1.975E3,1.279E3,6.27E2,1E0,6E0,6.43E2,1E1,1.919E3,1.271E3,1.313E3,6.48E2,6.41E2,1.279E3,6.54E2,1.321E3,2.3E2,1.049E3,5E2,1.27E2,5E0,1E0,6.22E2,2.1E1,4E0,6E0,1.094E3,8.25E2,5.87E2,6.84E2,1.053E3,2.6E2,2.17E2,4.31E2,9.9E1,5.42E2,6.24E2,6.55E2,5.72E2,8.2E1,6.46E2,6.75E2,6.25E2,4.24E2,2E1,4.8E2],"tree_param":{"num_deleted":"0","num_feature":"17","num_nodes":"63","size_leaf_vector":"1"}},{"base_weights":[1.6301212E-1,-2.7513342E0,5.2520653E1,-1.113856E1,5.6173983E0,4.911133E0,6.762826E1,-1.2322314E1,-1.7797291E0,-6.6681445E-1,1.2504607E1,6.204234E0,7.655079E0,-1.4570887E1,-1.0064475E1,-1.9838456E0,-4.4776493E-1,-3.6035326E0,1.2600831E1,1.06123295E1,1.8665228E1,-1.5542292E1,-1.3597965E1,-1.2003444E1,-9.442408E0,-2.0512803E0,4.3291843E-1,-4.285233E-2,-3.9522463E-1,-5.5908594E0,2.1597571E0,1.6054296E1,1.1458187E1,6.6259937E0,1.7868841E1,1.8893044E1,8.556856E0,-1.626668E0,-1.4828539E0,-1.3949727E0,-1.0655009E0,-1.145888E0,-1.4367923E0,-8.5912734E-1,-9.856054E-1,-2.2066002E-1,-9.5006846E-2,6.1986353E-2,-1.1856289E-1,-7.2796784E-2,2.498626E-1,-6.7699444E-1,-3.6761242E-1,1.5779898E-1,4.554405E-1,2.0299413E0,1.45651E0,1.0770832E0,1.2871655E0,6.98095E-2,7.0166034E-1,2.563667E0,1.6594766E0,1.8299458E0,2.08681E0,-5.962372E-4,9.128108E-1],"categories":[],"categories_nodes":[],"categories_segments":[],"categories_sizes":[],"default_left":[0,0,0,0,0,0,0,0,0,0,0,0,0,0,0,0,0,0,0,0,0,0,0,0,0,0,0,0,0,0,0,0,0,0,0,0,0,0,0,0,0,0,0,0,0,0,0,0,0,0,0,0,0,0,0,0,0,0,0,0,0,0,0,0,0,0,0],"id":6,"left_children":[1,3,5,7,9,-1,11,13,15,17,19,-1,-1,21,23,25,27,29,31,33,35,37,39,41,43,45,47,49,-1,51,53,55,57,59,61,63,65,-1,-1,-1,-1,-1,-1,-1,-1,-1,-1,-1,-1,-1,-1,-1,-1,-1,-1,-1,-1,-1,-1,-1,-1,-1,-1,-1,-1,-1,-1],"loss_changes":[1.8492095E6,8.05849E5,2.95915E4,6.35025E4,2.4874244E5,0E0,9.8225E2,2.5694812E4,1.7447156E2,1.1716919E5,3.1767062E4,0E0,0E0,2.19675E3,2.9539688E3,9.1990234E1,1.2328438E2,2.821069E4,1.9666562E3,6.062808E4,1.3190625E3,4.14375E2,1.1775E3,6.259531E2,5.948125E2,9.094946E1,5.576199E0,1.3937422E2,0E0,4.1088438E3,8.7327E2,5.451406E2,2.626172E2,3.1372227E3,6.9377812E3,3.54375E2,7.831897E1,0E0,0E0,0E0,0E0,0E0,0E0,0E0,0E0,0E0,0E0,0E0,0E0,0E0,0E0,0E0,0E0,0E0,0E0,0E0,0E0,0E0,0E0,0E0,0E0,0E0,0E0,0E0,0E0,0E0,0E0],"parents":[2147483647,0,0,1,1,2,2,3,3,4,4,6,6,7,7,8,8,9,9,10,10,13,13,14,14,15,15,16,16,17,17,18,18,19,19,20,20,21,21,22,22,23,23,24,24,25,25,26,26,27,27,29,29,30,30,31,31,32,32,33,33,34,34,35,35,36,36],"right_children":[2,4,6,8,10,-1,12,14,16,18,20,-1,-1,22,24,26,28,30,32,34,36,38,40,42,44,46,48,50,-1,52,54,56,58,60,62,64,66,-1,-1,-1,-1,-1,-1,-1,-1,-1,-1,-1,-1,-1,-1,-1,-1,-1,-1,-1,-1,-1,-1,-1,-1,-1,-1,-1,-1,-1,-1],"split_conditions":[9.2E1,9E0,6E0,8E0,5E0,4.911133E0,7E0,5E0,1.704781E2,4E1,1.2E1,6.204234E0,7.655079E0,3E0,5E0,1.5081252E2,7E0,3.2E1,4E0,3.5E1,1E1,4E0,4E0,4E0,5E0,6E0,1.6306528E2,5.982121E-2,-3.9522463E-1,4E0,4E0,3E0,5E0,8E0,8E0,8E0,3.6195193E-3,-1.626668E0,-1.4828539E0,-1.3949727E0,-1.0655009E0,-1.145888E0,-1.4367923E0,-8.5912734E-1,-9.856054E-1,-2.2066002E-1,-9.5006846E-2,6.1986353E-2,-1.1856289E-1,-7.2796784E-2,2.498626E-1,-6.7699444E-1,-3.6761242E-1,1.5779898E-1,4.554405E-1,2.0299413E0,1.45651E0,1.0770832E0,1.2871655E0,6.98095E-2,7.0166034E-1,2.563667E0,1.6594766E0,1.8299458E0,2.08681E0,-5.962372E-4,9.128108E-1],"split_indices":[1,2,15,0,15,0,15,1,8,1,0,0,0,5,2,9,15,1,14,1,15,0,15,15,0,15,8,16,0,15,15,14,14,0,0,15,16,0,0,0,0,0,0,0,0,0,0,0,0,0,0,0,0,0,0,0,0,0,0,0,0,0,0,0,0,0,0],"split_type":[0,0,0,0,0,0,0,0,0,0,0,0,0,0,0,0,0,0,0,0,0,0,0,0,0,0,0,0,0,0,0,0,0,0,0,0,0,0,0,0,0,0,0,0,0,0,0,0,0,0,0,0,0,0,0,0,0,0,0,0,0,0,0,0,0,0,0],"sum_hessian":[1.2117E4,1.1479E4,6.38E2,5.733E3,5.746E3,5.24E2,1.14E2,5.089E3,6.44E2,3.005E3,2.741E3,7.5E1,3.9E1,2.547E3,2.542E3,5.58E2,8.6E1,2.461E3,5.44E2,2.099E3,6.42E2,1.267E3,1.28E3,6.13E2,1.929E3,5.43E2,1.5E1,7.8E1,8E0,1.83E3,6.31E2,1.32E2,4.12E2,1.356E3,7.43E2,6.27E2,1.5E1,6.18E2,6.49E2,1.14E3,1.4E2,5.03E2,1.1E2,6.38E2,1.291E3,4.75E2,6.8E1,1.4E1,1E0,6.2E1,1.6E1,1.131E3,6.99E2,5.09E2,1.22E2,3.1E1,1.01E2,2.83E2,1.29E2,8.4E1,1.272E3,1.02E2,6.41E2,4.9E2,1.37E2,1E0,1.4E1],"tree_param":{"num_deleted":"0","num_feature":"17","num_nodes":"67","size_leaf_vector":"1"}},{"base_weights":[-1.6804608E-2,-2.575972E0,4.7158974E1,-1.0085699E1,5.0569496E0,4.418109E0,6.0657753E1,-1.1128253E1,-1.6633649E0,-5.5641305E-1,1.1329818E1,5.58106E0,6.8843665E0,-1.3158903E1,-9.077633E0,-7.0657706E-1,-1.9988655E0,-3.2492182E0,1.1329401E1,9.670974E0,1.6784504E1,-1.4232905E0,-1.2348914E1,-1.0835379E1,-8.4978695E0,-1.981636E-1,-4.0946957E-1,-2.1490097E0,-4.334801E-1,-5.0114956E0,1.8896271E0,1.9151892E1,1.1079421E1,6.0675344E0,1.6117203E1,1.6930113E1,9.147642E0,-1.260691E0,-9.540989E-1,-1.0313727E0,-1.3028197E0,-9.079366E-1,-7.919547E-1,-1.9145124E-1,5.4639276E-2,-2.1737073E-1,4.2848682E-1,1.4023602E-1,-2.2496168E-1,-6.0542965E-1,-3.3142695E-1,1.3532405E-1,4.102667E-1,7.4758476E-1,2.242092E0,1.0559251E0,1.3666681E0,5.464193E-1,9.665289E-1,2.3093412E0,1.5003271E0,1.6432762E0,1.864054E0,3.8350932E-2,1.0576372E0],"categories":[],"categories_nodes":[],"categories_segments":[],"categories_sizes":[],"default_left":[0,0,0,0,0,0,0,0,0,0,0,0,0,0,0,0,0,0,0,0,0,0,0,0,0,0,0,0,0,0,0,0,0,0,0,0,0,0,0,0,0,0,0,0,0,0,0,0,0,0,0,0,0,0,0,0,0,0,0,0,0,0,0,0,0],"id":7,"left_children":[1,3,5,7,9,-1,11,13,15,17,19,-1,-1,21,23,25,27,29,31,33,35,-1,37,39,41,43,-1,45,47,49,51,53,55,57,59,61,63,-1,-1,-1,-1,-1,-1,-1,-1,-1,-1,-1,-1,-1,-1,-1,-1,-1,-1,-1,-1,-1,-1,-1,-1,-1,-1,-1,-1],"loss_changes":[1.475813E6,6.646899E5,2.2604625E4,5.1304875E4,2.0250988E5,0E0,5.620625E2,2.1538E4,2.0563452E2,9.7207586E4,2.4413312E4,0E0,0E0,2.095625E3,2.5483281E3,2.903021E2,1.1117944E2,2.2432303E4,8.848281E2,4.833383E4,5.479219E2,0E0,9.634844E2,5.965781E2,5.84875E2,1.9017798E2,0E0,7.8436035E1,1.4652266E2,3.2435703E3,7.4584766E2,4.4309375E2,5.905E2,2.8537148E3,5.4584844E3,2.2025E2,1.712461E2,0E0,0E0,0E0,0E0,0E0,0E0,0E0,0E0,0E0,0E0,0E0,0E0,0E0,0E0,0E0,0E0,0E0,0E0,0E0,0E0,0E0,0E0,0E0,0E0,0E0,0E0,0E0,0E0],"parents":[2147483647,0,0,1,1,2,2,3,3,4,4,6,6,7,7,8,8,9,9,10,10,13,13,14,14,15,15,16,16,17,17,18,18,19,19,20,20,22,22,23,23,24,24,25,25,27,27,28,28,29,29,30,30,31,31,32,32,33,33,34,34,35,35,36,36],"right_children":[2,4,6,8,10,-1,12,14,16,18,20,-1,-1,22,24,26,28,30,32,34,36,-1,38,40,42,44,-1,46,48,50,52,54,56,58,60,62,64,-1,-1,-1,-1,-1,-1,-1,-1,-1,-1,-1,-1,-1,-1,-1,-1,-1,-1,-1,-1,-1,-1,-1,-1,-1,-1,-1,-1],"split_conditions":[5.6E1,9E0,6E0,8E0,5E0,4.418109E0,7E0,6E0,1.7387817E-2,3E1,1.2E1,5.58106E0,6.8843665E0,2E-2,5E0,7E0,1.4146313E2,1.6E1,2.26837E-3,2E1,1E1,-1.4232905E0,4E0,4E0,1.2966321E-2,4.3780454E-3,-4.0946957E-1,1.4499517E-1,1.7481625E-2,4E0,4E0,1.5288219E2,1.6378693E2,7E0,8E0,8E0,1.5700648E-2,-1.260691E0,-9.540989E-1,-1.0313727E0,-1.3028197E0,-9.079366E-1,-7.919547E-1,-1.9145124E-1,5.4639276E-2,-2.1737073E-1,4.2848682E-1,1.4023602E-1,-2.2496168E-1,-6.0542965E-1,-3.3142695E-1,1.3532405E-1,4.102667E-1,7.4758476E-1,2.242092E0,1.0559251E0,1.3666681E0,5.464193E-1,9.665289E-1,2.3093412E0,1.5003271E0,1.6432762E0,1.864054E0,3.8350932E-2,1.0576372E0],"split_indices":[2,2,15,0,15,0,15,3,11,2,0,0,0,12,2,15,9,2,16,2,15,0,15,15,11,16,0,16,11,15,15,9,8,15,0,15,11,0,0,0,0,0,0,0,0,0,0,0,0,0,0,0,0,0,0,0,0,0,0,0,0,0,0,0,0],"split_type":[0,0,0,0,0,0,0,0,0,0,0,0,0,0,0,0,0,0,0,0,0,0,0,0,0,0,0,0,0,0,0,0,0,0,0,0,0,0,0,0,0,0,0,0,0,0,0,0,0,0,0,0,0,0,0,0,0,0,0,0,0,0,0,0,0],"sum_hessian":[1.2222E4,1.1594E4,6.28E2,5.844E3,5.75E3,5.18E2,1.1E2,5.2E3,6.44E2,3.035E3,2.715E3,7.4E1,3.6E1,2.61E3,2.59E3,1.68E2,4.76E2,2.475E3,5.6E2,2.084E3,6.31E2,1.115E3,1.495E3,6.38E2,1.952E3,1.47E2,2.1E1,4.34E2,4.2E1,1.843E3,6.32E2,1.5E1,5.45E2,1.338E3,7.46E2,6.18E2,1.3E1,1.366E3,1.29E2,5.2E2,1.18E2,9.66E2,9.86E2,4.4E1,1.03E2,4.33E2,1E0,2.1E1,2.1E1,1.14E3,7.03E2,5.1E2,1.22E2,4E0,1.1E1,4.58E2,8.7E1,1.148E3,1.9E2,1E2,6.46E2,4.87E2,1.31E2,2E0,1.1E1],"tree_param":{"num_deleted":"0","num_feature":"17","num_nodes":"65","size_leaf_vector":"1"}},{"base_weights":[-4.0012826E-3,-2.2423613E0,4.2546864E1,-1.0422664E1,2.8941817E0,3.985158E1,5.4705933E1,-1.1829404E1,-8.568059E0,-3.033297E-1,1.1573299E1,3.8590862E1,4.293796E0,5.0557733E0,6.191339E0,-1.2814759E0,-1.1081562E1,-9.745558E0,-8.003294E0,-4.2931128E0,6.324717E0,6.043604E0,1.4305422E1,3.7339787E0,4.34529E0,-1.1319324E1,-8.5975784E-1,-9.284812E-1,-1.1696109E0,-7.8096867E0,-8.756623E0,-5.8491974E0,-1.9502901E0,3.4737334E0,1.1883841E1,9.27801E0,5.472558E0,1.3096538E1,1.5409172E1,-1.4132707E0,-1.111945E0,-7.561195E-1,-8.04612E-1,-9.901844E-1,-7.2945625E-1,-7.2472435E-1,-5.403721E-1,-2.699481E-1,-1.3589612E-1,1.3406006E-1,4.9498376E-1,1.0242832E0,2.0808973E0,-4.4341192E-1,1.1533464E0,4.6475655E-1,7.7917033E-1,1.2678281E0,1.4330783E0,1.5602568E0,6.5893835E-1],"categories":[],"categories_nodes":[],"categories_segments":[],"categories_sizes":[],"default_left":[0,0,0,0,0,0,0,0,0,0,0,0,0,0,0,0,0,0,0,0,0,0,0,0,0,0,0,0,0,0,0,0,0,0,0,0,0,0,0,0,0,0,0,0,0,0,0,0,0,0,0,0,0,0,0,0,0,0,0,0,0],"id":8,"left_children":[1,3,5,7,9,11,13,15,17,19,21,23,-1,-1,-1,-1,25,27,29,31,33,35,37,-1,-1,39,-1,-1,-1,41,43,45,47,49,51,53,55,57,59,-1,-1,-1,-1,-1,-1,-1,-1,-1,-1,-1,-1,-1,-1,-1,-1,-1,-1,-1,-1,-1,-1],"loss_changes":[1.1625504E6,4.8727644E5,1.781075E4,1.15684375E4,1.9770577E5,3.0025E2,9.88125E1,1.7304375E3,1.2074688E3,1.3772348E5,2.8890312E4,6.098125E2,0E0,0E0,0E0,0E0,7.602031E2,4.5040234E2,1.2296875E2,1.1840535E4,3.0975164E4,1.123916E3,1.5100938E3,0E0,0E0,5.8625E2,0E0,0E0,0E0,1.0234375E0,3.6310938E2,1.1771562E3,5.71812E2,4.0709648E3,9.497305E3,2.9582866E3,1.0026963E3,1.3786719E2,1.0315E3,0E0,0E0,0E0,0E0,0E0,0E0,0E0,0E0,0E0,0E0,0E0,0E0,0E0,0E0,0E0,0E0,0E0,0E0,0E0,0E0,0E0,0E0],"parents":[2147483647,0,0,1,1,2,2,3,3,4,4,5,5,6,6,7,7,8,8,9,9,10,10,11,11,16,16,17,17,18,18,19,19,20,20,21,21,22,22,25,25,29,29,30,30,31,31,32,32,33,33,34,34,35,35,36,36,37,37,38,38],"right_children":[2,4,6,8,10,12,14,16,18,20,22,24,-1,-1,-1,-1,26,28,30,32,34,36,38,-1,-1,40,-1,-1,-1,42,44,46,48,50,52,54,56,58,60,-1,-1,-1,-1,-1,-1,-1,-1,-1,-1,-1,-1,-1,-1,-1,-1,-1,-1,-1,-1,-1,-1],"split_conditions":[9.2E1,8E0,6E0,5E0,1E1,6E0,7E0,2E-2,6E0,3.2E1,1.2E1,1.6216191E2,4.293796E0,5.0557733E0,6.191339E0,-1.2814759E0,4E0,4E0,5E0,6E0,4E1,4E0,7E0,3.7339787E0,4.34529E0,4E0,-8.5975784E-1,-9.284812E-1,-1.1696109E0,6E0,6E0,3E0,5E0,4E0,5E0,1.5747434E-2,7E0,1.2E1,1E1,-1.4132707E0,-1.111945E0,-7.561195E-1,-8.04612E-1,-9.901844E-1,-7.2945625E-1,-7.2472435E-1,-5.403721E-1,-2.699481E-1,-1.3589612E-1,1.3406006E-1,4.9498376E-1,1.0242832E0,2.0808973E0,-4.4341192E-1,1.1533464E0,4.6475655E-1,7.7917033E-1,1.2678281E0,1.4330783E0,1.5602568E0,6.5893835E-1],"split_indices":[1,1,15,1,0,14,15,12,0,1,1,8,0,0,0,0,15,15,14,0,1,14,15,0,0,0,0,0,0,1,1,15,15,15,15,11,15,0,15,0,0,0,0,0,0,0,0,0,0,0,0,0,0,0,0,0,0,0,0,0,0],"split_type":[0,0,0,0,0,0,0,0,0,0,0,0,0,0,0,0,0,0,0,0,0,0,0,0,0,0,0,0,0,0,0,0,0,0,0,0,0,0,0,0,0,0,0,0,0,0,0,0,0,0,0,0,0,0,0,0,0,0,0,0,0],"sum_hessian":[1.2204E4,1.1595E4,6.09E2,4.472E3,7.123E3,5.02E2,1.07E2,2.54E3,1.932E3,5.206E3,1.917E3,3.66E2,1.36E2,7.3E1,3.4E1,1.089E3,1.451E3,6.21E2,1.311E3,3.25E3,1.956E3,6.35E2,1.282E3,2.98E2,6.8E1,1.321E3,1.3E2,5.07E2,1.14E2,1.052E3,2.59E2,1.952E3,1.298E3,1.294E3,6.62E2,9.3E1,5.42E2,6.18E2,6.64E2,8.3E1,1.238E3,5.29E2,5.23E2,1.42E2,1.17E2,4.68E2,1.484E3,5.71E2,7.27E2,5.3E2,7.64E2,5.61E2,1.01E2,1.3E1,8E1,4.02E2,1.4E2,4.7E2,1.48E2,6.49E2,1.5E1],"tree_param":{"num_deleted":"0","num_feature":"17","num_nodes":"61","size_leaf_vector":"1"}},{"base_weights":[7.350074E-2,-2.076174E0,3.8223476E1,-8.16406E0,4.0941424E0,4.5075893E1,3.6349354E0,-1.3439367E0,-9.010024E0,7.4992313E0,-2.6400945E0,4.9738674E0,3.9750233E0,3.0574148E0,-1.4115589E0,-1.0273765E1,-6.9343495E0,1.0550705E1,4.4550486E0,-4.757203E0,1.6482909E0,-3.9011326E-1,5.2846932E0,-6.621036E-1,-1.6864945E0,-1.1051038E1,-9.1059065E0,-7.381618E0,-6.498519E0,5.4164886E0,1.297975E1,-2.0728636E0,7.7698274E0,-5.0979776E0,-4.4277916E0,3.162299E-1,1.5246803E0,6.340785E-1,-1.05397515E-1,-2.5444674E-1,3.265829E-2,-1.8045811E-1,-4.6547398E-2,-1.1945549E0,-1.0603536E0,-1.2441177E0,-9.0513366E-1,-7.18993E-1,-8.86673E-1,-6.96936E-1,-5.9246284E-1,6.594843E-1,4.2920142E-1,1.3621402E0,1.2311801E0,-1.591763E-1,-4.0461132E-1,4.7667274E-1,1.0657915E0,-3.0535433E-1,-5.28989E-1,-4.8547873E-1,-3.6278683E-1,1.8248574E-1,1.18460946E-1],"categories":[],"categories_nodes":[],"categories_segments":[],"categories_sizes":[],"default_left":[0,0,0,0,0,0,0,0,0,0,0,0,0,0,0,0,0,0,0,0,0,0,0,0,0,0,0,0,0,0,0,0,0,0,0,0,0,0,0,0,0,0,0,0,0,0,0,0,0,0,0,0,0,0,0,0,0,0,0,0,0,0,0,0,0],"id":9,"left_children":[1,3,5,7,9,11,-1,13,15,17,19,-1,-1,21,23,25,27,29,31,33,35,-1,37,39,41,43,45,47,49,51,53,55,57,59,61,-1,63,-1,-1,-1,-1,-1,-1,-1,-1,-1,-1,-1,-1,-1,-1,-1,-1,-1,-1,-1,-1,-1,-1,-1,-1,-1,-1,-1,-1],"loss_changes":[9.962554E5,4.3202153E5,6.68325E3,3.338797E4,1.3099981E5,1.37525E3,0E0,1.9479834E2,1.3437781E4,3.519639E4,1.74304E4,0E0,0E0,1.756025E2,1.289021E2,2.80325E3,3.3253906E2,2.3550234E4,4.115106E4,1.21671875E2,1.1401721E2,0E0,6.0236786E1,3.190736E2,6.562988E1,6.402969E2,1.2108594E2,2.0840234E2,2.2811328E2,7.799629E2,3.8303125E2,6.0208105E2,1.0886125E4,2.2906738E2,2.0816211E2,0E0,5.7964355E1,0E0,0E0,0E0,0E0,0E0,0E0,0E0,0E0,0E0,0E0,0E0,0E0,0E0,0E0,0E0,0E0,0E0,0E0,0E0,0E0,0E0,0E0,0E0,0E0,0E0,0E0,0E0,0E0],"parents":[2147483647,0,0,1,1,2,2,3,3,4,4,5,5,7,7,8,8,9,9,10,10,13,13,14,14,15,15,16,16,17,17,18,18,19,19,20,20,22,22,23,23,24,24,25,25,26,26,27,27,28,28,29,29,30,30,31,31,32,32,33,33,34,34,36,36],"right_children":[2,4,6,8,10,12,-1,14,16,18,20,-1,-1,22,24,26,28,30,32,34,36,-1,38,40,42,44,46,48,50,52,54,56,58,60,62,-1,64,-1,-1,-1,-1,-1,-1,-1,-1,-1,-1,-1,-1,-1,-1,-1,-1,-1,-1,-1,-1,-1,-1,-1,-1,-1,-1,-1,-1],"split_conditions":[9.2E1,9E0,4E0,3.3333334E-1,4E-1,2.0324707E-2,3.6349354E0,1.2385154E-2,5E0,2.5E-1,2.4E1,4.9738674E0,3.9750233E0,1.1376953E-2,1.7387817E-2,4E0,1.2966321E-2,1.2E1,3.2E1,2.2E1,3E0,-3.9011326E-1,4.1381836E-2,4E0,1.4146313E2,3E0,4.6452703E-3,5E0,8E0,6E0,1.6E1,5E0,3.5E1,3E0,4E0,3.162299E-1,1.0640225E2,6.340785E-1,-1.05397515E-1,-2.5444674E-1,3.265829E-2,-1.8045811E-1,-4.6547398E-2,-1.1945549E0,-1.0603536E0,-1.2441177E0,-9.0513366E-1,-7.18993E-1,-8.86673E-1,-6.96936E-1,-5.9246284E-1,6.594843E-1,4.2920142E-1,1.3621402E0,1.2311801E0,-1.591763E-1,-4.0461132E-1,4.7667274E-1,1.0657915E0,-3.0535433E-1,-5.28989E-1,-4.8547873E-1,-3.6278683E-1,1.8248574E-1,1.18460946E-1],"split_indices":[1,2,14,13,13,10,0,11,2,13,1,0,0,10,11,2,11,1,1,1,14,0,10,14,9,2,11,14,1,14,1,14,1,14,14,0,9,0,0,0,0,0,0,0,0,0,0,0,0,0,0,0,0,0,0,0,0,0,0,0,0,0,0,0,0],"split_type":[0,0,0,0,0,0,0,0,0,0,0,0,0,0,0,0,0,0,0,0,0,0,0,0,0,0,0,0,0,0,0,0,0,0,0,0,0,0,0,0,0,0,0,0,0,0,0,0,0,0,0,0,0,0,0,0,0,0,0,0,0,0,0,0,0],"sum_hessian":[1.2146E4,1.1499E4,6.47E2,5.788E3,5.711E3,1.34E2,5.13E2,6.39E2,5.149E3,3.793E3,1.918E3,6.7E1,6.7E1,9E0,6.3E2,3.198E3,1.951E3,1.893E3,1.9E3,1.284E3,6.34E2,2E0,7E0,1.7E2,4.6E2,1.915E3,1.283E3,9.55E2,9.96E2,6.09E2,1.284E3,6.4E2,1.26E3,6.24E2,6.6E2,4.6E1,5.88E2,6E0,1E0,5.8E1,1.12E2,4.19E2,4.1E1,6.3E2,1.285E3,1.7E1,1.266E3,8.51E2,1.04E2,5.41E2,4.55E2,2.95E2,3.14E2,6.45E2,6.39E2,5.16E2,1.24E2,6.19E2,6.41E2,5.5E1,5.69E2,4.27E2,2.33E2,3.1E2,2.78E2],"tree_param":{"num_deleted":"0","num_feature":"17","num_nodes":"65","size_leaf_vector":"1"}},{"base_weights":[2.5685264E-2,-1.8103561E0,3.4325283E1,-7.341847E0,3.7698035E0,3.208841E1,4.5132965E1,-8.095134E0,-1.1721483E0,-4.2270067E-1,8.339282E0,3.0813143E1,3.5083E0,4.1290255E0,5.1716995E0,-9.240982E0,-6.2317038E0,3.2953172E0,-1.2350067E0,-2.3137364E0,8.2182865E0,7.0850153E0,1.2213524E1,2.9851062E0,3.5538697E0,-9.913265E0,-8.213014E0,-6.5728025E0,-5.7589865E0,-3.6410567E-1,5.7972896E-1,-1.1340442E0,-3.4141812E-1,-3.636634E0,1.503482E0,1.1471589E1,7.126931E0,4.478297E0,1.1783755E1,1.2405173E1,4.603664E0,-1.0742477E0,-9.517707E-1,-1.1360852E0,-8.153273E-1,-6.4122826E-1,-8.005889E-1,-5.271442E-1,-6.3169664E-1,-1.870645E-2,-1.4387664E-1,-4.4113427E-1,-2.3596649E-1,1.14315405E-1,2.9823723E-1,1.2817285E0,7.176263E-1,6.4773244E-1,8.446278E-1,4.015045E-1,7.129261E-1,1.7691399E0,1.0830063E0,1.190272E0,1.4138143E0,-3.3456992E-2,6.52872E-1],"categories":[],"categories_nodes":[],"categories_segments":[],"categories_sizes":[],"default_left":[0,0,0,0,0,0,0,0,0,0,0,0,0,0,0,0,0,0,0,0,0,0,0,0,0,0,0,0,0,0,0,0,0,0,0,0,0,0,0,0,0,0,0,0,0,0,0,0,0,0,0,0,0,0,0,0,0,0,0,0,0,0,0,0,0,0,0],"id":10,"left_children":[1,3,5,7,9,11,13,15,17,19,21,23,-1,-1,-1,25,27,29,31,33,35,37,39,-1,-1,41,43,45,47,-1,-1,49,-1,51,53,55,57,59,61,63,65,-1,-1,-1,-1,-1,-1,-1,-1,-1,-1,-1,-1,-1,-1,-1,-1,-1,-1,-1,-1,-1,-1,-1,-1,-1,-1],"loss_changes":[7.622544E5,3.5465406E5,1.34196875E4,2.6806875E4,1.0958476E5,8.780625E2,4.7054688E2,1.0921625E4,1.8070398E2,4.8778812E4,1.3213469E4,6.1221875E2,0E0,0E0,0E0,2.117625E3,2.7834375E2,1.7729977E2,1.3275757E2,1.2372402E4,1.8213203E3,2.530118E4,9.171172E2,0E0,0E0,5.271875E2,1.4507031E2,2.090664E2,1.9249219E2,0E0,0E0,1.7142749E2,0E0,1.7890898E3,3.3284155E2,6.767871E2,2.9154102E2,1.6083867E3,3.9663516E3,3.985703E2,1.732992E2,0E0,0E0,0E0,0E0,0E0,0E0,0E0,0E0,0E0,0E0,0E0,0E0,0E0,0E0,0E0,0E0,0E0,0E0,0E0,0E0,0E0,0E0,0E0,0E0,0E0,0E0],"parents":[2147483647,0,0,1,1,2,2,3,3,4,4,5,5,6,6,7,7,8,8,9,9,10,10,11,11,15,15,16,16,17,17,18,18,19,19,20,20,21,21,22,22,25,25,26,26,27,27,28,28,31,31,33,33,34,34,35,35,36,36,37,37,38,38,39,39,40,40],"right_children":[2,4,6,8,10,12,14,16,18,20,22,24,-1,-1,-1,26,28,30,32,34,36,38,40,-1,-1,42,44,46,48,-1,-1,50,-1,52,54,56,58,60,62,64,66,-1,-1,-1,-1,-1,-1,-1,-1,-1,-1,-1,-1,-1,-1,-1,-1,-1,-1,-1,-1,-1,-1,-1,-1,-1,-1],"split_conditions":[5.6E1,9E0,6E0,8E0,5E0,6E0,7E0,5E0,1.2385154E-2,3E1,1.2E1,1.4222292E2,3.5083E0,4.1290255E0,5.1716995E0,5E0,1.5359464E-2,1.1376953E-2,7E0,1.6E1,4E0,2E1,1E1,2.9851062E0,3.5538697E0,4E0,4.6452703E-3,5E0,5E0,-3.6410567E-1,5.7972896E-1,1.7387817E-2,-3.4141812E-1,4E0,4E0,2.7954102E-2,5E0,7E0,8E0,8E0,1.5700648E-2,-1.0742477E0,-9.517707E-1,-1.1360852E0,-8.153273E-1,-6.4122826E-1,-8.005889E-1,-5.271442E-1,-6.3169664E-1,-1.870645E-2,-1.4387664E-1,-4.4113427E-1,-2.3596649E-1,1.14315405E-1,2.9823723E-1,1.2817285E0,7.176263E-1,6.4773244E-1,8.446278E-1,4.015045E-1,7.129261E-1,1.7691399E0,1.0830063E0,1.190272E0,1.4138143E0,-3.3456992E-2,6.52872E-1],"split_indices":[2,2,15,0,15,14,15,2,11,2,0,9,0,0,0,0,11,10,15,2,14,2,15,0,0,0,11,14,0,0,0,11,0,15,15,10,14,15,0,15,11,0,0,0,0,0,0,0,0,0,0,0,0,0,0,0,0,0,0,0,0,0,0,0,0,0,0],"split_type":[0,0,0,0,0,0,0,0,0,0,0,0,0,0,0,0,0,0,0,0,0,0,0,0,0,0,0,0,0,0,0,0,0,0,0,0,0,0,0,0,0,0,0,0,0,0,0,0,0,0,0,0,0,0,0,0,0,0,0,0,0,0,0,0,0,0,0],"sum_hessian":[1.2102E4,1.1488E4,6.14E2,5.769E3,5.719E3,5.12E2,1.02E2,5.141E3,6.28E2,2.983E3,2.736E3,3.67E2,1.45E2,6.9E1,3.3E1,3.181E3,1.96E3,8E0,6.2E2,2.448E3,5.35E2,2.069E3,6.67E2,3.11E2,5.6E1,1.918E3,1.263E3,1.131E3,8.29E2,2E0,6E0,5.94E2,2.6E1,1.818E3,6.3E2,1.32E2,4.03E2,1.332E3,7.37E2,6.5E2,1.7E1,6.11E2,1.307E3,2E1,1.243E3,1.022E3,1.09E2,4.48E2,3.81E2,1.45E2,4.49E2,1.13E3,6.88E2,5.08E2,1.22E2,9.9E1,3.3E1,2.74E2,1.29E2,1.136E3,1.96E2,1E2,6.37E2,5.1E2,1.4E2,5E0,1.2E1],"tree_param":{"num_deleted":"0","num_feature":"17","num_nodes":"67","size_leaf_vector":"1"}},{"base_weights":[-4.2622784E-4,-1.6723553E0,3.1142979E1,-7.6027665E0,2.1505342E0,2.9166752E1,4.0501656E1,-8.614832E0,-6.2430925E0,-2.0180148E-1,8.437545E0,2.8210821E1,3.1584413E0,3.7317402E0,4.6318293E0,-9.38511E-1,-8.041433E0,-7.0446553E0,-5.8443036E0,-2.4103289E0,6.3550296E0,4.4711246E0,1.0448642E1,2.7230716E0,3.266356E0,-8.249909E0,-6.056499E0,-6.6416264E-1,-8.809293E-1,-5.408437E0,-6.0247145E0,-3.1164312E0,1.2442528E0,8.791245E0,3.9278605E0,7.5422063E0,3.8565888E0,9.4093895E0,1.1391317E1,-7.910582E-1,-9.254326E-1,-6.2478536E-1,-3.4149975E-1,-4.6064273E-1,-6.2199706E-1,-6.427147E-1,-5.601694E-1,-4.3617725E-1,-1.5331805E-1,9.127639E-2,2.683337E-1,7.3214173E-1,1.5950109E0,3.4005556E-1,1.3288318E0,-4.3774492E-1,9.555088E-1,6.397781E-1,3.5355306E-1,9.0416557E-1,1.0421046E0,1.1566082E0,4.9141428E-1],"categories":[],"categories_nodes":[],"categories_segments":[],"categories_sizes":[],"default_left":[0,0,0,0,0,0,0,0,0,0,0,0,0,0,0,0,0,0,0,0,0,0,0,0,0,0,0,0,0,0,0,0,0,0,0,0,0,0,0,0,0,0,0,0,0,0,0,0,0,0,0,0,0,0,0,0,0,0,0,0,0,0,0],"id":11,"left_children":[1,3,5,7,9,11,13,15,17,19,21,23,-1,-1,-1,-1,25,27,29,31,33,35,37,-1,-1,39,41,-1,-1,43,45,47,49,51,53,55,57,59,61,-1,-1,-1,-1,-1,-1,-1,-1,-1,-1,-1,-1,-1,-1,-1,-1,-1,-1,-1,-1,-1,-1,-1,-1],"loss_changes":[6.3056244E5,2.6057767E5,1.023E4,6.1454688E3,1.0336312E5,2.9459375E2,2.1629688E2,1.0640469E3,5.744844E2,7.367987E4,1.5133234E4,7.5584375E2,0E0,0E0,0E0,0E0,5.6496094E2,3.9310547E2,6.901172E1,9.825295E3,7.5460703E3,1.1825527E3,1.1291562E3,0E0,0E0,3.841797E2,5.1955566E1,0E0,0E0,2.2388086E2,1.180625E2,6.282998E3,2.9188464E2,6.6069688E3,3.1334775E3,2.5850698E3,4.1550342E2,1.3122266E2,6.868828E2,0E0,0E0,0E0,0E0,0E0,0E0,0E0,0E0,0E0,0E0,0E0,0E0,0E0,0E0,0E0,0E0,0E0,0E0,0E0,0E0,0E0,0E0,0E0,0E0],"parents":[2147483647,0,0,1,1,2,2,3,3,4,4,5,5,6,6,7,7,8,8,9,9,10,10,11,11,16,16,17,17,18,18,19,19,20,20,21,21,22,22,25,25,26,26,29,29,30,30,31,31,32,32,33,33,34,34,35,35,36,36,37,37,38,38],"right_children":[2,4,6,8,10,12,14,16,18,20,22,24,-1,-1,-1,-1,26,28,30,32,34,36,38,-1,-1,40,42,-1,-1,44,46,48,50,52,54,56,58,60,62,-1,-1,-1,-1,-1,-1,-1,-1,-1,-1,-1,-1,-1,-1,-1,-1,-1,-1,-1,-1,-1,-1,-1,-1],"split_conditions":[4.2E1,9E0,6E0,6E0,1E1,6E0,7E0,2E-2,6E0,2.6E1,1.3E1,1.4222292E2,3.1584413E0,3.7317402E0,4.6318293E0,-9.38511E-1,4E0,4E0,4E0,2.4E1,8E0,4E0,7E0,2.7230716E0,3.266356E0,2.0525476E-2,1.4646884E2,-6.6416264E-1,-8.809293E-1,7E0,7E0,4E0,4E0,5E0,7E0,1.5747434E-2,1.6265512E-2,1.2E1,1E1,-7.910582E-1,-9.254326E-1,-6.2478536E-1,-3.4149975E-1,-4.6064273E-1,-6.2199706E-1,-6.427147E-1,-5.601694E-1,-4.3617725E-1,-1.5331805E-1,9.127639E-2,2.683337E-1,7.3214173E-1,1.5950109E0,3.4005556E-1,1.3288318E0,-4.3774492E-1,9.555088E-1,6.397781E-1,3.5355306E-1,9.0416557E-1,1.0421046E0,1.1566082E0,4.9141428E-1],"split_indices":[3,3,15,3,0,14,15,12,0,3,3,9,0,0,0,0,15,15,14,3,0,14,15,0,0,12,9,0,0,3,3,15,15,15,15,11,11,0,15,0,0,0,0,0,0,0,0,0,0,0,0,0,0,0,0,0,0,0,0,0,0,0,0],"split_type":[0,0,0,0,0,0,0,0,0,0,0,0,0,0,0,0,0,0,0,0,0,0,0,0,0,0,0,0,0,0,0,0,0,0,0,0,0,0,0,0,0,0,0,0,0,0,0,0,0,0,0,0,0,0,0,0,0,0,0,0,0,0,0],"sum_hessian":[1.2108E4,1.1492E4,6.16E2,4.504E3,6.988E3,5.12E2,1.04E2,2.579E3,1.925E3,5.086E3,1.902E3,3.76E2,1.36E2,7.2E1,3.2E1,1.094E3,1.485E3,6.34E2,1.291E3,3.805E3,1.281E3,6.41E2,1.261E3,3.14E2,6.2E1,1.341E3,1.44E2,5.2E2,1.14E2,3.87E2,9.04E2,3.189E3,6.16E2,6.38E2,6.43E2,1.05E2,5.36E2,6.05E2,6.56E2,1.009E3,3.32E2,1.33E2,1.1E1,1.98E2,1.89E2,4.56E2,4.48E2,1.784E3,1.405E3,5.02E2,1.14E2,5.31E2,1.07E2,6.1E2,3.3E1,1.5E1,9E1,5.8E1,4.78E2,4.51E2,1.54E2,6.38E2,1.8E1],"tree_param":{"num_deleted":"0","num_feature":"17","num_nodes":"63","size_leaf_vector":"1"}},{"base_weights":[-4.4640567E-2,-1.4903203E0,2.773794E1,-5.9409895E0,3.0085642E0,2.5973423E1,3.6767857E1,-6.57424E0,-9.584681E-1,-3.2914588E-1,6.721336E0,2.4999105E1,2.844749E0,3.3418252E0,4.214988E0,-7.766591E0,-5.391766E0,-1.4441693E-1,-1.2074133E0,-1.9049871E0,6.751317E0,5.5896587E0,9.714457E0,2.4214435E0,2.9081411E0,-8.4503263E-1,-7.2390637E0,-6.3713923E0,-5.0769196E0,-2.0791302E0,1.002091E0,-1.3299156E0,-9.56299E-2,-2.9332833E0,1.1257114E0,9.588343E0,5.7547016E0,3.5653262E0,9.751707E0,1.4372306E0,8.894868E0,-7.420869E-1,-5.463106E-1,-5.979704E-1,-7.95994E-1,-5.44716E-1,-4.7604623E-1,-2.5977793E-1,3.7307844E-2,-4.1088277E-1,1.263288E-1,-1.2930012E-1,-3.221658E-1,1.9690381E-1,-1.7298275E-1,-3.433792E-1,-1.832457E-1,8.2195126E-2,2.4206339E-1,1.0799197E0,5.723071E-1,5.176814E-1,6.8851596E-1,3.189277E-1,5.8528304E-1,-7.161986E-2,9.8343486E-1,8.1561834E-1,1.0813575E0],"categories":[],"categories_nodes":[],"categories_segments":[],"categories_sizes":[],"default_left":[0,0,0,0,0,0,0,0,0,0,0,0,0,0,0,0,0,0,0,0,0,0,0,0,0,0,0,0,0,0,0,0,0,0,0,0,0,0,0,0,0,0,0,0,0,0,0,0,0,0,0,0,0,0,0,0,0,0,0,0,0,0,0,0,0,0,0,0,0],"id":12,"left_children":[1,3,5,7,9,11,13,15,17,19,21,23,-1,-1,-1,25,27,29,31,33,35,37,39,-1,-1,-1,41,43,45,47,49,51,53,55,57,59,61,63,65,-1,67,-1,-1,-1,-1,-1,-1,-1,-1,-1,-1,-1,-1,-1,-1,-1,-1,-1,-1,-1,-1,-1,-1,-1,-1,-1,-1,-1,-1],"loss_changes":[4.8884594E5,2.316645E5,8.636906E3,1.8344281E4,7.130669E4,5.1096875E2,3.2208594E2,7.2333125E3,1.3296948E2,3.3831805E4,9.1725625E3,4.8742188E2,0E0,0E0,0E0,8.6471875E2,7.677344E2,3.4589886E2,6.8379395E1,7.7321123E3,1.5055605E3,1.6639035E4,2.7200234E3,0E0,0E0,0E0,4.295703E2,3.425293E2,2.0465234E2,7.473566E1,1.360163E2,2.7468506E1,1.7548393E2,1.01411035E3,2.4542505E2,6.027959E2,2.3285254E2,1.128E3,5.6675E2,0E0,8.146328E2,0E0,0E0,0E0,0E0,0E0,0E0,0E0,0E0,0E0,0E0,0E0,0E0,0E0,0E0,0E0,0E0,0E0,0E0,0E0,0E0,0E0,0E0,0E0,0E0,0E0,0E0,0E0,0E0],"parents":[2147483647,0,0,1,1,2,2,3,3,4,4,5,5,6,6,7,7,8,8,9,9,10,10,11,11,15,15,16,16,17,17,18,18,19,19,20,20,21,21,22,22,26,26,27,27,28,28,29,29,30,30,31,31,32,32,33,33,34,34,35,35,36,36,37,37,38,38,40,40],"right_children":[2,4,6,8,10,12,14,16,18,20,22,24,-1,-1,-1,26,28,30,32,34,36,38,40,-1,-1,-1,42,44,46,48,50,52,54,56,58,60,62,64,66,-1,68,-1,-1,-1,-1,-1,-1,-1,-1,-1,-1,-1,-1,-1,-1,-1,-1,-1,-1,-1,-1,-1,-1,-1,-1,-1,-1,-1,-1],"split_conditions":[5.6E1,9E0,6E0,8E0,5E0,6E0,7E0,6E0,1.722629E-2,3E1,2E1,1.4222292E2,2.844749E0,3.3418252E0,4.214988E0,2E-2,5E0,4E0,1.4146313E2,1.6E1,4E0,1.2E1,8E0,2.4214435E0,2.9081411E0,-8.4503263E-1,4E0,4E0,1.2588095E-2,1.3292114E2,1.1376953E-2,1.20458014E-1,4E0,6E0,4E0,2.557373E-2,5E0,7E0,1.5700648E-2,1.4372306E0,7E0,-7.420869E-1,-5.463106E-1,-5.979704E-1,-7.95994E-1,-5.44716E-1,-4.7604623E-1,-2.5977793E-1,3.7307844E-2,-4.1088277E-1,1.263288E-1,-1.2930012E-1,-3.221658E-1,1.9690381E-1,-1.7298275E-1,-3.433792E-1,-1.832457E-1,8.2195126E-2,2.4206339E-1,1.0799197E0,5.723071E-1,5.176814E-1,6.8851596E-1,3.189277E-1,5.8528304E-1,-7.161986E-2,9.8343486E-1,8.1561834E-1,1.0813575E0],"split_indices":[2,2,15,0,15,14,15,3,11,2,2,9,0,0,0,12,2,14,9,2,14,0,0,0,0,0,15,15,11,9,10,16,14,0,15,10,14,15,11,0,15,0,0,0,0,0,0,0,0,0,0,0,0,0,0,0,0,0,0,0,0,0,0,0,0,0,0,0,0],"split_type":[0,0,0,0,0,0,0,0,0,0,0,0,0,0,0,0,0,0,0,0,0,0,0,0,0,0,0,0,0,0,0,0,0,0,0,0,0,0,0,0,0,0,0,0,0,0,0,0,0,0,0,0,0,0,0,0,0,0,0,0,0,0,0,0,0,0,0,0,0],"sum_hessian":[1.2169E4,1.1568E4,6.01E2,5.815E3,5.753E3,5.06E2,9.5E1,5.159E3,6.56E2,3.03E3,2.723E3,3.71E2,1.35E2,6.3E1,3.2E1,2.566E3,2.593E3,1.54E2,5.02E2,2.479E3,5.51E2,1.978E3,7.45E2,3.17E2,5.4E1,1.111E3,1.455E3,6.26E2,1.967E3,5.7E1,9.7E1,4.52E2,5E1,1.851E3,6.28E2,1.41E2,4.1E2,1.332E3,6.46E2,1.09E2,6.36E2,1.317E3,1.38E2,5.06E2,1.2E2,8.99E2,1.068E3,4.7E1,1E1,4E0,9.3E1,4.45E2,7E0,2.2E1,2.8E1,1.271E3,5.8E2,5.1E2,1.18E2,1.06E2,3.5E1,2.75E2,1.35E2,1.146E3,1.86E2,5E0,6.41E2,4.63E2,1.73E2],"tree_param":{"num_deleted":"0","num_feature":"17","num_nodes":"69","size_leaf_vector":"1"}},{"base_weights":[5.2021217E-2,-1.3254186E0,2.5208683E1,-5.3678317E0,2.7130363E0,2.3475292E0,3.3252514E1,-5.921688E0,-8.327966E-1,-3.265929E-1,6.023533E0,3.0188646E0,3.805626E0,-6.9925246E0,-4.8376937E0,3.3422918E0,-8.917741E-1,-1.707659E0,5.8674927E0,5.0249114E0,8.73021E0,-7.9175334E0,-6.69334E0,-5.693436E0,-4.5609627E0,-2.507392E-1,4.386926E0,-9.424241E-1,2.3073144E0,-2.6661062E0,1.0854588E0,5.363239E0,8.261968E0,3.1772203E0,8.849856E0,1.2941289E0,8.035525E0,-7.7749157E-1,-8.8371104E-1,-6.8224525E-1,-4.8635918E-1,-5.38318E-1,-7.123055E-1,-4.891108E-1,-4.2552248E-1,5.323514E-1,-1.0845929E-1,-8.640506E-2,-2.754344E-1,5.2503663E-1,-5.2978106E-2,-3.0940014E-1,-1.6248173E-1,8.182392E-2,2.1846178E-1,1.1371354E0,5.231158E-1,1.1828014E0,6.0440755E-1,-1.797044E-2,3.3940202E-1,-1.3137177E-1,8.913832E-1,7.308535E-1,9.893624E-1],"categories":[],"categories_nodes":[],"categories_segments":[],"categories_sizes":[],"default_left":[0,0,0,0,0,0,0,0,0,0,0,0,0,0,0,0,0,0,0,0,0,0,0,0,0,0,0,0,0,0,0,0,0,0,0,0,0,0,0,0,0,0,0,0,0,0,0,0,0,0,0,0,0,0,0,0,0,0,0,0,0,0,0,0,0],"id":13,"left_children":[1,3,5,7,9,-1,11,13,15,17,19,-1,-1,21,23,25,27,29,31,33,35,37,39,41,43,-1,45,47,49,51,53,55,57,59,61,-1,63,-1,-1,-1,-1,-1,-1,-1,-1,-1,-1,-1,-1,-1,-1,-1,-1,-1,-1,-1,-1,-1,-1,-1,-1,-1,-1,-1,-1],"loss_changes":[4.2320097E5,1.8904294E5,8.0593125E3,1.4530609E4,5.8295086E4,0E0,4.70125E2,5.9523125E3,1.5835574E2,2.5852988E4,7.4513984E3,0E0,0E0,6.6434375E2,5.816875E2,6.599677E1,1.0312158E2,6.617899E3,6.2098047E2,1.4304395E4,2.0783398E3,1.3652344E1,4.3103906E2,2.3798633E2,1.7541016E2,0E0,4.677028E1,8.481213E1,8.627873E1,8.148086E2,1.8384149E2,3.039629E2,6.719663E2,9.969414E2,4.4085547E2,0E0,7.9626953E2,0E0,0E0,0E0,0E0,0E0,0E0,0E0,0E0,0E0,0E0,0E0,0E0,0E0,0E0,0E0,0E0,0E0,0E0,0E0,0E0,0E0,0E0,0E0,0E0,0E0,0E0,0E0,0E0],"parents":[2147483647,0,0,1,1,2,2,3,3,4,4,6,6,7,7,8,8,9,9,10,10,13,13,14,14,15,15,16,16,17,17,18,18,19,19,20,20,21,21,22,22,23,23,24,24,26,26,27,27,28,28,29,29,30,30,31,31,32,32,33,33,34,34,36,36],"right_children":[2,4,6,8,10,-1,12,14,16,18,20,-1,-1,22,24,26,28,30,32,34,36,38,40,42,44,-1,46,48,50,52,54,56,58,60,62,-1,64,-1,-1,-1,-1,-1,-1,-1,-1,-1,-1,-1,-1,-1,-1,-1,-1,-1,-1,-1,-1,-1,-1,-1,-1,-1,-1,-1,-1],"split_conditions":[9.2E1,9E0,6E0,8E0,5E0,2.3475292E0,7E0,5E0,1.2385154E-2,4E1,3.5E1,3.0188646E0,3.805626E0,4E0,5E0,1.1376953E-2,1.932629E2,3.2E1,1.6378693E2,1.2E1,8E0,2E-2,4E0,4E0,1.26944985E-2,-2.507392E-1,4.1381836E-2,7E0,1.4903446E-2,6E0,4E0,2.26837E-3,1.670395E2,8E0,1.5700648E-2,1.2941289E0,7E0,-7.7749157E-1,-8.8371104E-1,-6.8224525E-1,-4.8635918E-1,-5.38318E-1,-7.123055E-1,-4.891108E-1,-4.2552248E-1,5.323514E-1,-1.0845929E-1,-8.640506E-2,-2.754344E-1,5.2503663E-1,-5.2978106E-2,-3.0940014E-1,-1.6248173E-1,8.182392E-2,2.1846178E-1,1.1371354E0,5.231158E-1,1.1828014E0,6.0440755E-1,-1.797044E-2,3.3940202E-1,-1.3137177E-1,8.913832E-1,7.308535E-1,9.893624E-1],"split_indices":[1,2,15,0,15,0,15,1,11,1,1,0,0,0,2,10,8,1,8,0,0,12,15,15,11,0,10,15,11,0,15,16,8,0,11,0,15,0,0,0,0,0,0,0,0,0,0,0,0,0,0,0,0,0,0,0,0,0,0,0,0,0,0,0,0],"split_type":[0,0,0,0,0,0,0,0,0,0,0,0,0,0,0,0,0,0,0,0,0,0,0,0,0,0,0,0,0,0,0,0,0,0,0,0,0,0,0,0,0,0,0,0,0,0,0,0,0,0,0,0,0,0,0,0,0,0,0,0,0,0,0,0,0],"sum_hessian":[1.2211E4,1.1578E4,6.33E2,5.786E3,5.792E3,5.24E2,1.09E2,5.156E3,6.3E2,3.02E3,2.772E3,7.1E1,3.8E1,2.591E3,2.565E3,8E0,6.22E2,2.47E3,5.5E2,2.027E3,7.45E2,6.27E2,1.964E3,6.22E2,1.943E3,1E0,7E0,6.13E2,9E0,1.839E3,6.31E2,4.57E2,9.3E1,1.368E3,6.59E2,1.03E2,6.42E2,5.51E2,7.6E1,1.832E3,1.32E2,5.15E2,1.07E2,9.27E2,1.016E3,6E0,1E0,5.89E2,2.4E1,4E0,5E0,1.302E3,5.37E2,5.09E2,1.22E2,8E0,4.49E2,3.4E1,5.9E1,8.3E1,1.285E3,4E0,6.55E2,4.65E2,1.77E2],"tree_param":{"num_deleted":"0","num_feature":"17","num_nodes":"65","size_leaf_vector":"1"}},{"base_weights":[3.6554777E-3,-1.2418481E0,2.2648277E1,-4.81144E0,2.3878176E0,2.108963E1,2.973831E1,-5.3410006E0,-6.481236E-1,-3.2423654E-1,5.434975E0,2.0658019E0,2.3636368E1,2.7348223E0,3.4417088E0,-6.305843E0,-4.3714685E0,1.9592628E-1,-9.6881324E-1,-1.5460069E0,5.3506603E0,4.5460396E0,7.787265E0,2.3918123E0,9.4650376E-1,-6.8766636E-1,-5.8746243E0,-5.1661067E0,-4.101579E0,5.680491E-1,-2.4012725E-1,-1.0873233E0,1.3856182E-1,-2.3898633E0,9.125939E-1,1.1537428E1,5.1872725E0,2.8550146E0,7.9945536E0,1.1657385E0,7.1553345E0,-5.547007E-1,-6.9048744E-1,-4.845101E-1,-6.449893E-1,-4.394303E-1,-3.84046E-1,-8.207937E-2,1.20680295E-1,-1.1111621E-1,4.581686E-1,1.4782721E-1,-1.3236694E-1,-2.878494E-1,-1.5592685E-1,6.703668E-2,1.9633964E-1,2.4591485E-1,1.4014997E0,4.9534804E-1,6.9498754E-1,-1.6199267E-2,3.0634692E-1,-5.4703902E-2,8.062245E-1,7.406207E-1,4.0619737E-1],"categories":[],"categories_nodes":[],"categories_segments":[],"categories_sizes":[],"default_left":[0,0,0,0,0,0,0,0,0,0,0,0,0,0,0,0,0,0,0,0,0,0,0,0,0,0,0,0,0,0,0,0,0,0,0,0,0,0,0,0,0,0,0,0,0,0,0,0,0,0,0,0,0,0,0,0,0,0,0,0,0,0,0,0,0,0,0],"id":14,"left_children":[1,3,5,7,9,11,13,15,17,19,21,-1,23,-1,-1,25,27,29,31,33,35,37,39,-1,-1,-1,41,43,45,47,-1,49,51,53,55,57,59,61,63,-1,65,-1,-1,-1,-1,-1,-1,-1,-1,-1,-1,-1,-1,-1,-1,-1,-1,-1,-1,-1,-1,-1,-1,-1,-1,-1,-1],"loss_changes":[3.4352416E5,1.4959342E5,6.390125E3,1.2830266E4,4.7313484E4,8.76875E1,3.1121875E2,4.803078E3,1.7829596E2,2.1016537E4,5.6020234E3,0E0,4.9117188E1,0E0,0E0,5.961406E2,5.3191016E2,1.7726282E2,6.2749817E1,5.176497E3,4.829756E2,1.1401129E4,1.7214727E3,0E0,0E0,0E0,4.612422E2,2.3661523E2,1.3064453E2,1.4293115E2,0E0,6.3337463E1,9.402815E1,7.491836E2,1.6107574E2,2.57932E2,1.8191699E2,8.281406E2,3.7676953E2,0E0,4.6425195E2,0E0,0E0,0E0,0E0,0E0,0E0,0E0,0E0,0E0,0E0,0E0,0E0,0E0,0E0,0E0,0E0,0E0,0E0,0E0,0E0,0E0,0E0,0E0,0E0,0E0,0E0],"parents":[2147483647,0,0,1,1,2,2,3,3,4,4,5,5,6,6,7,7,8,8,9,9,10,10,12,12,15,15,16,16,17,17,18,18,19,19,20,20,21,21,22,22,26,26,27,27,28,28,29,29,31,31,32,32,33,33,34,34,35,35,36,36,37,37,38,38,40,40],"right_children":[2,4,6,8,10,12,14,16,18,20,22,-1,24,-1,-1,26,28,30,32,34,36,38,40,-1,-1,-1,42,44,46,48,-1,50,52,54,56,58,60,62,64,-1,66,-1,-1,-1,-1,-1,-1,-1,-1,-1,-1,-1,-1,-1,-1,-1,-1,-1,-1,-1,-1,-1,-1,-1,-1,-1,-1],"split_conditions":[9.2E1,9E0,6E0,8E0,5E0,1.4222292E2,7E0,5E0,1.7387817E-2,4E1,3.5E1,2.0658019E0,1.6405254E2,2.7348223E0,3.4417088E0,2E-2,5E0,7E0,1.4146313E2,3.2E1,2.26837E-3,1.2E1,8E0,2.3918123E0,9.4650376E-1,-6.8766636E-1,2.0525476E-2,4E0,1.26944985E-2,4.3780454E-3,-2.4012725E-1,1.4499517E-1,1.7481625E-2,4E0,4E0,1.5288219E2,7.900476E-2,8E0,1.5700648E-2,1.1657385E0,8E0,-5.547007E-1,-6.9048744E-1,-4.845101E-1,-6.449893E-1,-4.394303E-1,-3.84046E-1,-8.207937E-2,1.20680295E-1,-1.1111621E-1,4.581686E-1,1.4782721E-1,-1.3236694E-1,-2.878494E-1,-1.5592685E-1,6.703668E-2,1.9633964E-1,2.4591485E-1,1.4014997E0,4.9534804E-1,6.9498754E-1,-1.6199267E-2,3.0634692E-1,-5.4703902E-2,8.062245E-1,7.406207E-1,4.0619737E-1],"split_indices":[1,2,15,0,15,9,15,1,11,1,1,0,9,0,0,12,2,15,9,1,16,0,0,0,0,0,12,15,11,16,0,16,11,15,15,9,16,0,11,0,15,0,0,0,0,0,0,0,0,0,0,0,0,0,0,0,0,0,0,0,0,0,0,0,0,0,0],"split_type":[0,0,0,0,0,0,0,0,0,0,0,0,0,0,0,0,0,0,0,0,0,0,0,0,0,0,0,0,0,0,0,0,0,0,0,0,0,0,0,0,0,0,0,0,0,0,0,0,0,0,0,0,0,0,0,0,0,0,0,0,0,0,0,0,0,0,0],"sum_hessian":[1.2178E4,1.1544E4,6.34E2,5.82E3,5.724E3,5.23E2,1.11E2,5.163E3,6.57E2,3.029E3,2.695E3,4.55E2,6.8E1,7.8E1,3.3E1,2.585E3,2.578E3,1.81E2,4.76E2,2.493E3,5.36E2,1.958E3,7.37E2,6.6E1,2E0,1.106E3,1.479E3,6.49E2,1.929E3,1.59E2,2.2E1,4.3E2,4.6E1,1.856E3,6.37E2,1.2E1,5.24E2,1.315E3,6.43E2,1.01E2,6.36E2,1.127E3,3.52E2,5.23E2,1.26E2,9.02E2,1.027E3,5E1,1.09E2,4.29E2,1E0,2.4E1,2.2E1,1.167E3,6.89E2,5.19E2,1.18E2,3E0,9E0,4.66E2,5.8E1,8.5E1,1.23E3,5E0,6.38E2,5.87E2,4.9E1],"tree_param":{"num_deleted":"0","num_feature":"17","num_nodes":"67","size_leaf_vector":"1"}},{"base_weights":[1.2275245E-2,-1.1060833E0,2.0459192E1,-5.007077E0,1.3669015E0,1.9037996E1,2.713887E1,-5.6629868E0,-4.1253195E0,-1.9580315E-1,5.581547E0,1.8195896E1,2.122741E0,2.4690986E0,3.1168842E0,-6.1900306E-1,-5.2725296E0,-4.649401E0,-3.866803E0,-1.5830643E0,4.0909457E0,3.029002E0,6.835441E0,1.7408789E0,2.1206661E1,-5.006553E0,-6.1524363E0,-4.3606445E-1,-5.7809057E0,-3.7431123E0,-4.350766E0,-2.0531852E0,8.1430644E-1,5.6480937E0,2.549474E0,5.912784E0,2.4985032E0,6.0710196E0,7.530855E0,5.90287E-1,2.13337E1,-5.1436424E-1,-3.8846475E-1,-6.9329196E-1,-5.358872E-1,-7.327559E-1,-5.466694E-1,-3.502801E-1,-3.9707044E-1,-5.241482E-1,-3.4260604E-1,-2.8408208E-1,-1.0427053E-1,5.659457E-2,1.7693032E-1,4.746463E-1,1.0497712E0,2.1523063E-1,1.0747303E0,-4.5333815E-1,7.5834215E-1,9.3922013E-1,2.362176E-1,7.7336836E-1,5.845914E-1,1.5683852E-1,7.6850957E-1,2.1558218E0,8.834035E-1],"categories":[],"categories_nodes":[],"categories_segments":[],"categories_sizes":[],"default_left":[0,0,0,0,0,0,0,0,0,0,0,0,0,0,0,0,0,0,0,0,0,0,0,0,0,0,0,0,0,0,0,0,0,0,0,0,0,0,0,0,0,0,0,0,0,0,0,0,0,0,0,0,0,0,0,0,0,0,0,0,0,0,0,0,0,0,0,0,0],"id":15,"left_children":[1,3,5,7,9,11,13,15,17,19,21,23,-1,-1,-1,-1,25,27,29,31,33,35,37,-1,39,41,43,-1,45,47,49,51,53,55,57,59,61,63,65,-1,67,-1,-1,-1,-1,-1,-1,-1,-1,-1,-1,-1,-1,-1,-1,-1,-1,-1,-1,-1,-1,-1,-1,-1,-1,-1,-1,-1,-1],"loss_changes":[2.7735344E5,1.1094847E5,5.4545E3,2.55725E3,4.636168E4,5.7615625E2,2.9582812E2,4.9335938E2,2.4038867E2,3.0549445E4,6.0732773E3,5.408281E2,0E0,0E0,0E0,0E0,3.1439844E2,1.7899805E2,6.051758E1,4.3757686E3,3.000377E3,9.4749805E2,6.3258984E2,0E0,1.9882812E1,1.5504492E2,1.7219238E2,0E0,2.0203613E1,4.2370117E1,1.9207275E2,2.5797012E3,1.5008466E2,2.6786543E3,2.0378613E3,1.7271985E3,4.7872705E2,1.842207E2,5.9859766E2,0E0,1.7226562E1,0E0,0E0,0E0,0E0,0E0,0E0,0E0,0E0,0E0,0E0,0E0,0E0,0E0,0E0,0E0,0E0,0E0,0E0,0E0,0E0,0E0,0E0,0E0,0E0,0E0,0E0,0E0,0E0],"parents":[2147483647,0,0,1,1,2,2,3,3,4,4,5,5,6,6,7,7,8,8,9,9,10,10,11,11,16,16,17,17,18,18,19,19,20,20,21,21,22,22,24,24,25,25,26,26,28,28,29,29,30,30,31,31,32,32,33,33,34,34,35,35,36,36,37,37,38,38,40,40],"right_children":[2,4,6,8,10,12,14,16,18,20,22,24,-1,-1,-1,-1,26,28,30,32,34,36,38,-1,40,42,44,-1,46,48,50,52,54,56,58,60,62,64,66,-1,68,-1,-1,-1,-1,-1,-1,-1,-1,-1,-1,-1,-1,-1,-1,-1,-1,-1,-1,-1,-1,-1,-1,-1,-1,-1,-1,-1,-1],"split_conditions":[9.2E1,8E0,6E0,5E0,1E1,6E0,7E0,2E-2,6E0,2.6E1,1.2E1,1.6216191E2,2.122741E0,2.4690986E0,3.1168842E0,-6.1900306E-1,2.0853274E-2,4E0,5E0,3.2E1,8E0,4E0,7E0,1.7408789E0,1.15356445E-2,4E0,3E0,-4.3606445E-1,4.6452703E-3,6E0,6E0,4E0,4E0,5E0,7E0,1.5747434E-2,1.414215E-2,4E0,4E0,5.90287E-1,1.6405254E2,-5.1436424E-1,-3.8846475E-1,-6.9329196E-1,-5.358872E-1,-7.327559E-1,-5.466694E-1,-3.502801E-1,-3.9707044E-1,-5.241482E-1,-3.4260604E-1,-2.8408208E-1,-1.0427053E-1,5.659457E-2,1.7693032E-1,4.746463E-1,1.0497712E0,2.1523063E-1,1.0747303E0,-4.5333815E-1,7.5834215E-1,9.3922013E-1,2.362176E-1,7.7336836E-1,5.845914E-1,1.5683852E-1,7.6850957E-1,2.1558218E0,8.834035E-1],"split_indices":[1,1,15,1,0,14,15,12,0,3,1,8,0,0,0,0,12,15,14,1,0,14,15,0,10,15,5,0,11,1,1,15,15,15,15,11,11,14,14,0,9,0,0,0,0,0,0,0,0,0,0,0,0,0,0,0,0,0,0,0,0,0,0,0,0,0,0,0,0],"split_type":[0,0,0,0,0,0,0,0,0,0,0,0,0,0,0,0,0,0,0,0,0,0,0,0,0,0,0,0,0,0,0,0,0,0,0,0,0,0,0,0,0,0,0,0,0,0,0,0,0,0,0,0,0,0,0,0,0,0,0,0,0,0,0,0,0,0,0,0,0],"sum_hessian":[1.2127E4,1.1499E4,6.28E2,4.461E3,7.038E3,5.21E2,1.07E2,2.555E3,1.906E3,5.135E3,1.903E3,3.83E2,1.38E2,7.1E1,3.6E1,1.081E3,1.474E3,6.24E2,1.282E3,3.88E3,1.255E3,6.28E2,1.275E3,3.09E2,7.4E1,1.137E3,3.37E2,5.01E2,1.23E2,1.028E3,2.54E2,3.244E3,6.36E2,6.23E2,6.32E2,9.6E1,5.32E2,6.12E2,6.63E2,1E0,7.3E1,1.01E3,1.27E2,1.66E2,1.71E2,1.7E1,1.06E2,5.08E2,5.2E2,1.27E2,1.27E2,1.822E3,1.422E3,5.06E2,1.3E2,5.27E2,9.6E1,6.04E2,2.8E1,1.3E1,8.3E1,9E0,5.23E2,6.9E1,5.43E2,1.7E1,6.46E2,7.1E1,2E0],"tree_param":{"num_deleted":"0","num_feature":"17","num_nodes":"69","size_leaf_vector":"1"}},{"base_weights":[2.189199E-2,-9.7856855E-1,1.8473368E1,-4.4966702E0,1.2646928E0,1.711979E1,2.4430939E1,-3.8859262E0,-5.3107734E0,5.0625587E0,-1.282276E-1,1.6783398E0,1.9326235E1,2.2200065E0,2.8094647E0,-3.4498992E0,-4.3295665E0,-5.0604305E0,-5.8062572E0,2.7315023E0,6.2019515E0,-1.8460728E0,2.6948335E0,1.9752022E0,1.0607028E0,-3.2483475E0,-3.657812E0,-6.5574473E-1,-4.299392E0,-5.4314893E-1,-4.7787905E0,-5.6947684E-1,-6.600494E-1,2.2854972E0,4.5900154E0,5.469658E0,6.8617144E0,-8.338148E-1,-2.5220623E0,1.5283761E0,4.939368E0,-2.9294106E-1,-3.550125E-1,-3.9993685E-1,-3.2877454E-1,-4.4914436E-1,-4.118921E-1,-4.4748503E-1,-5.6471777E-1,6.421997E-1,2.1183918E-1,6.745221E-1,1.959499E-1,6.1529666E-1,5.252168E-1,6.98292E-1,2.3987022E-1,-1.7766165E-2,-1.1690412E-1,-3.5298878E-1,-2.2116697E-1,1.36542E-1,9.654148E-1,4.1493532E-1,9.4597656E-1],"categories":[],"categories_nodes":[],"categories_segments":[],"categories_sizes":[],"default_left":[0,0,0,0,0,0,0,0,0,0,0,0,0,0,0,0,0,0,0,0,0,0,0,0,0,0,0,0,0,0,0,0,0,0,0,0,0,0,0,0,0,0,0,0,0,0,0,0,0,0,0,0,0,0,0,0,0,0,0,0,0,0,0,0,0],"id":16,"left_children":[1,3,5,7,9,11,13,15,17,19,21,-1,23,-1,-1,25,27,29,31,33,35,37,39,-1,-1,41,43,-1,45,-1,47,-1,-1,49,51,53,55,57,59,61,63,-1,-1,-1,-1,-1,-1,-1,-1,-1,-1,-1,-1,-1,-1,-1,-1,-1,-1,-1,-1,-1,-1,-1,-1],"loss_changes":[2.2360528E5,9.0685016E4,4.6056406E3,2.203875E3,3.7121457E4,5.4921875E1,2.99875E2,4.8026562E2,2.0816016E2,4.984285E3,2.490758E4,0E0,1.6953125E1,0E0,0E0,4.2426758E1,5.6845703E1,1.078125E2,1.8726562E1,5.0343115E2,5.7315625E2,2.182789E3,5.0795225E3,0E0,0E0,5.3797363E1,6.6481445E1,0E0,2.4859375E1,0E0,1.6898828E2,0E0,0E0,3.3339355E2,6.614297E2,5.7447266E1,3.4081445E2,2.8134082E2,5.909336E2,1.6817212E3,2.3320117E3,0E0,0E0,0E0,0E0,0E0,0E0,0E0,0E0,0E0,0E0,0E0,0E0,0E0,0E0,0E0,0E0,0E0,0E0,0E0,0E0,0E0,0E0,0E0,0E0],"parents":[2147483647,0,0,1,1,2,2,3,3,4,4,5,5,6,6,7,7,8,8,9,9,10,10,12,12,15,15,16,16,17,17,18,18,19,19,20,20,21,21,22,22,25,25,26,26,28,28,30,30,33,33,34,34,35,35,36,36,37,37,38,38,39,39,40,40],"right_children":[2,4,6,8,10,12,14,16,18,20,22,-1,24,-1,-1,26,28,30,32,34,36,38,40,-1,-1,42,44,-1,46,-1,48,-1,-1,50,52,54,56,58,60,62,64,-1,-1,-1,-1,-1,-1,-1,-1,-1,-1,-1,-1,-1,-1,-1,-1,-1,-1,-1,-1,-1,-1,-1,-1],"split_conditions":[9.2E1,8E0,6E0,5E-1,2.5E-1,1.4222292E2,7E0,4E-1,6.666667E-1,1.2E1,3.2E1,1.6783398E0,1.6133284E2,2.2200065E0,2.8094647E0,2.3864746E-2,4.6452703E-3,2E-2,2E-2,2E-2,7E0,5E-1,4E1,1.9752022E0,1.0607028E0,6E0,6E0,-6.5574473E-1,1.0822445E-2,-5.4314893E-1,2.0525476E-2,-5.6947684E-1,-6.600494E-1,1.4187913E-2,2.0525476E-2,1.6E1,1E1,1.6812624E-2,3E0,7E0,5E0,-2.9294106E-1,-3.550125E-1,-3.9993685E-1,-3.2877454E-1,-4.4914436E-1,-4.118921E-1,-4.4748503E-1,-5.6471777E-1,6.421997E-1,2.1183918E-1,6.745221E-1,1.959499E-1,6.1529666E-1,5.252168E-1,6.98292E-1,2.3987022E-1,-1.7766165E-2,-1.1690412E-1,-3.5298878E-1,-2.2116697E-1,1.36542E-1,9.654148E-1,4.1493532E-1,9.4597656E-1],"split_indices":[1,1,15,4,4,9,15,4,4,1,1,0,9,0,0,10,11,12,12,11,15,4,1,0,0,1,1,0,11,0,12,0,0,11,12,1,15,11,15,15,15,0,0,0,0,0,0,0,0,0,0,0,0,0,0,0,0,0,0,0,0,0,0,0,0],"split_type":[0,0,0,0,0,0,0,0,0,0,0,0,0,0,0,0,0,0,0,0,0,0,0,0,0,0,0,0,0,0,0,0,0,0,0,0,0,0,0,0,0,0,0,0,0,0,0,0,0,0,0,0,0,0,0,0,0,0,0,0,0,0,0,0,0],"sum_hessian":[1.2111E4,1.1489E4,6.22E2,4.473E3,7.016E3,5.1E2,1.12E2,2.559E3,1.914E3,1.882E3,5.134E3,4.5E2,6E1,7.4E1,3.8E1,1.295E3,1.264E3,1.279E3,6.35E2,6.19E2,1.263E3,3.192E3,1.942E3,5.6E1,4E0,6.66E2,6.29E2,1.4E1,1.25E3,5.44E2,7.35E2,5.64E2,7.1E1,5.01E2,1.18E2,6.03E2,6.6E2,1.279E3,1.913E3,1.279E3,6.63E2,3.29E2,3.37E2,3.22E2,3.07E2,5.94E2,6.56E2,5.49E2,1.86E2,1.8E1,4.83E2,6.4E1,5.4E1,1.39E2,4.64E2,6.42E2,1.8E1,4.33E2,8.46E2,4.48E2,1.465E3,1.255E3,2.4E1,5.66E2,9.7E1],"tree_param":{"num_deleted":"0","num_feature":"17","num_nodes":"65","size_leaf_vector":"1"}},{"base_weights":[1.2889779E-2,-8.7388015E-1,1.6695774E1,-3.505795E0,1.7669159E0,1.5402534E1,2.2247433E1,-3.8968582E0,-4.485759E-1,-2.4535084E-1,3.994635E0,1.46076145E1,1.7431778E0,2.025462E0,2.5377953E0,-4.6065016E0,-3.1904087E0,-5.959898E-1,3.4437206E-1,-1.1469557E0,3.8731537E0,3.2336278E0,5.6137486E0,1.5908998E1,1.3423656E1,-4.691772E0,-3.0766022E0,-3.738417E0,-3.0111938E0,4.5279458E-1,-7.108533E-1,-2.0232182E0,2.7053397E0,-1.7408161E0,6.2499696E-1,9.683516E0,3.5130863E0,2.298522E0,5.3980155E0,2.8846533E0,6.240639E0,1.6820826E1,1.3125002E0,1.3482621E0,5.116476E-1,-5.227412E-1,-4.495302E-1,-3.3194014E-1,-1.2870173E-1,-3.4981257E-1,-4.809949E-1,-2.9248455E-1,-3.6222932E-1,-9.229707E-2,1.6300313E-1,-7.5644605E-2,-4.9912684E-2,4.140854E-3,-2.2934175E-1,-1.052735E-1,3.5163957E-1,-2.4078675E-1,-1.3930029E-1,4.3303616E-2,1.4658588E-1,1.3212622E0,9.511296E-2,4.7108775E-1,3.2138336E-1,1.9008501E-1,5.539747E-1,8.52433E-1,4.7134432E-1,1.19372346E-1,4.4808516E-1,6.78976E-1,4.7055277E-1,4.620125E-1,1.6882962E0],"categories":[],"categories_nodes":[],"categories_segments":[],"categories_sizes":[],"default_left":[0,0,0,0,0,0,0,0,0,0,0,0,0,0,0,0,0,0,0,0,0,0,0,0,0,0,0,0,0,0,0,0,0,0,0,0,0,0,0,0,0,0,0,0,0,0,0,0,0,0,0,0,0,0,0,0,0,0,0,0,0,0,0,0,0,0,0,0,0,0,0,0,0,0,0,0,0,0,0],"id":17,"left_children":[1,3,5,7,9,11,13,15,17,19,21,23,-1,-1,-1,25,27,29,31,33,35,37,39,41,43,45,47,49,51,53,55,57,59,61,63,65,67,69,71,73,75,77,-1,-1,-1,-1,-1,-1,-1,-1,-1,-1,-1,-1,-1,-1,-1,-1,-1,-1,-1,-1,-1,-1,-1,-1,-1,-1,-1,-1,-1,-1,-1,-1,-1,-1,-1,-1,-1],"loss_changes":[1.7879862E5,7.9768414E4,4.0369062E3,6.870367E3,2.5682742E4,5.486797E2,1.909336E2,2.5400703E3,7.6535416E1,1.1185079E4,3.332082E3,3.4728906E2,0E0,0E0,0E0,3.1692578E2,2.3986719E2,6.669919E1,5.8122327E2,2.6013027E3,1.0978188E3,3.735912E3,1.4670117E3,2.0569922E2,2.7511719E1,2.2949219E2,5.5255737E1,1.4435645E2,9.135156E1,9.058254E1,4.4200745E0,2.910373E1,1.621983E2,4.2609473E2,9.96024E1,9.427761E2,1.6802441E2,1.6586533E3,1.1540449E3,4.3729688E2,5.6233594E2,1.5246094E1,0E0,0E0,0E0,0E0,0E0,0E0,0E0,0E0,0E0,0E0,0E0,0E0,0E0,0E0,0E0,0E0,0E0,0E0,0E0,0E0,0E0,0E0,0E0,0E0,0E0,0E0,0E0,0E0,0E0,0E0,0E0,0E0,0E0,0E0,0E0,0E0,0E0],"parents":[2147483647,0,0,1,1,2,2,3,3,4,4,5,5,6,6,7,7,8,8,9,9,10,10,11,11,15,15,16,16,17,17,18,18,19,19,20,20,21,21,22,22,23,23,24,24,25,25,26,26,27,27,28,28,29,29,30,30,31,31,32,32,33,33,34,34,35,35,36,36,37,37,38,38,39,39,40,40,41,41],"right_children":[2,4,6,8,10,12,14,16,18,20,22,24,-1,-1,-1,26,28,30,32,34,36,38,40,42,44,46,48,50,52,54,56,58,60,62,64,66,68,70,72,74,76,78,-1,-1,-1,-1,-1,-1,-1,-1,-1,-1,-1,-1,-1,-1,-1,-1,-1,-1,-1,-1,-1,-1,-1,-1,-1,-1,-1,-1,-1,-1,-1,-1,-1,-1,-1,-1,-1],"split_conditions":[9.2E1,9E0,6E0,8E0,5E0,6E0,7E0,5E0,6E0,4E1,7E0,5E0,1.7431778E0,2.025462E0,2.5377953E0,4E0,5E0,4E0,4E0,3.2E1,3E0,3.5E1,1.2E1,3.4627277E-2,1.4905748E2,4E0,1.4428229E2,4E0,5E0,1.4016476E2,6.118429E-2,7.889479E1,1.8432617E-2,2.2E1,4E0,2.1057129E-2,4E0,1.2E1,8E0,5E0,7E0,1.15356445E-2,1.3125002E0,1.3482621E0,5.116476E-1,-5.227412E-1,-4.495302E-1,-3.3194014E-1,-1.2870173E-1,-3.4981257E-1,-4.809949E-1,-2.9248455E-1,-3.6222932E-1,-9.229707E-2,1.6300313E-1,-7.5644605E-2,-4.9912684E-2,4.140854E-3,-2.2934175E-1,-1.052735E-1,3.5163957E-1,-2.4078675E-1,-1.3930029E-1,4.3303616E-2,1.4658588E-1,1.3212622E0,9.511296E-2,4.7108775E-1,3.2138336E-1,1.9008501E-1,5.539747E-1,8.52433E-1,4.7134432E-1,1.19372346E-1,4.4808516E-1,6.78976E-1,4.7055277E-1,4.620125E-1,1.6882962E0],"split_indices":[1,2,15,0,15,14,15,1,15,1,15,14,0,0,0,15,2,14,14,1,14,1,1,10,9,0,9,15,14,9,16,9,10,1,15,10,14,0,0,14,14,10,0,0,0,0,0,0,0,0,0,0,0,0,0,0,0,0,0,0,0,0,0,0,0,0,0,0,0,0,0,0,0,0,0,0,0,0,0],"split_type":[0,0,0,0,0,0,0,0,0,0,0,0,0,0,0,0,0,0,0,0,0,0,0,0,0,0,0,0,0,0,0,0,0,0,0,0,0,0,0,0,0,0,0,0,0,0,0,0,0,0,0,0,0,0,0,0,0,0,0,0,0,0,0,0,0,0,0,0,0,0,0,0,0,0,0,0,0,0,0],"sum_hessian":[1.2084E4,1.1475E4,6.09E2,5.747E3,5.728E3,4.97E2,1.12E2,5.095E3,6.52E2,3.01E3,2.718E3,3.63E2,1.34E2,7.3E1,3.9E1,2.539E3,2.556E3,5.5E2,1.02E2,2.47E3,5.4E2,1.851E3,8.67E2,1.67E2,1.96E2,2.403E3,1.36E2,6.25E2,1.931E3,5.4E1,4.96E2,5.1E1,5.1E1,1.85E3,6.2E2,3E1,5.1E2,1.294E3,5.57E2,1.63E2,7.04E2,1.22E2,4.5E1,1.94E2,2E0,6.38E2,1.765E3,1.19E2,1.7E1,5.14E2,1.11E2,1.697E3,2.34E2,2.5E1,2.9E1,4.06E2,9E1,6E0,4.5E1,9E0,4.2E1,6.32E2,1.218E3,5.06E2,1.14E2,2.1E1,9E0,9.9E1,4.11E2,1.154E3,1.4E2,9.8E1,4.59E2,8E1,8.3E1,5.16E2,1.88E2,1E0,1.21E2],"tree_param":{"num_deleted":"0","num_feature":"17","num_nodes":"79","size_leaf_vector":"1"}},{"base_weights":[8.859151E-3,-7.950445E-1,1.4904782E1,-3.1632748E0,1.6165173E0,1.3955431E1,1.9599003E1,-3.5097225E0,-4.0379E-1,-2.1963018E-1,3.5993443E0,1.3260586E1,1.5718858E0,1.8148688E0,2.2523143E0,-4.1422944E0,-2.8779874E0,2.091866E0,-4.6555048E-1,-1.0213364E0,3.4949028E0,2.956656E0,4.995696E0,1.2662669E1,1.6458097E1,-4.5294878E-1,-3.852626E0,-3.37838E0,-2.710913E0,-2.044027E0,4.7778044E0,-5.843163E-1,5.0989E-1,-1.5765105E0,5.938147E-1,9.064507E0,3.107631E0,2.120703E0,4.843243E0,2.3309112E0,5.592088E0,1.2143515E0,1.4606326E1,1.8480425E0,1.1440785E1,-3.628602E-1,-4.5406222E-1,-3.1491277E-1,-4.3049666E-1,-2.6291892E-1,-3.247351E-1,1.2477213E-1,-3.610271E-1,6.502999E-1,5.6426384E-2,-1.6969469E-1,-4.178123E-2,1.4548893E-1,-4.766775E-2,-2.7456653E-1,-1.4026403E-1,4.254774E-2,1.3130993E-1,1.2040067E0,7.19154E-2,2.8688717E-1,4.978567E-1,1.7376897E-1,5.044865E-1,7.683552E-1,4.22367E-1,1.1839483E-2,4.2114612E-1,6.083407E-1,4.241899E-1,1.7509874E0,1.2668518E0,1.1921735E0,4.9018097E-1],"categories":[],"categories_nodes":[],"categories_segments":[],"categories_sizes":[],"default_left":[0,0,0,0,0,0,0,0,0,0,0,0,0,0,0,0,0,0,0,0,0,0,0,0,0,0,0,0,0,0,0,0,0,0,0,0,0,0,0,0,0,0,0,0,0,0,0,0,0,0,0,0,0,0,0,0,0,0,0,0,0,0,0,0,0,0,0,0,0,0,0,0,0,0,0,0,0,0,0],"id":18,"left_children":[1,3,5,7,9,11,13,15,17,19,21,23,-1,-1,-1,25,27,29,31,33,35,37,39,41,43,-1,45,47,49,51,53,55,57,59,61,63,65,67,69,71,73,-1,75,-1,77,-1,-1,-1,-1,-1,-1,-1,-1,-1,-1,-1,-1,-1,-1,-1,-1,-1,-1,-1,-1,-1,-1,-1,-1,-1,-1,-1,-1,-1,-1,-1,-1,-1,-1],"loss_changes":[1.4663236E5,6.635707E4,2.5206875E3,5.602754E3,2.0960662E4,4.3484375E2,2.8046875E1,2.069293E3,1.0193093E2,8.907684E3,2.4692852E3,5.2383594E2,0E0,0E0,0E0,2.7416016E2,2.0896094E2,1.8750604E2,7.44413E1,2.206794E3,1.1171719E3,2.9830605E3,1.371207E3,1.5258594E2,3.669287E2,0E0,2.1379102E2,1.24305176E2,7.743164E1,4.059437E1,6.902234E1,1.0507297E2,6.59549E1,3.6835693E2,7.572322E1,8.3563306E2,2.081753E2,1.4662642E3,9.9173926E2,6.693817E2,4.4585352E2,0E0,1.3827344E2,0E0,1.3154297E0,0E0,0E0,0E0,0E0,0E0,0E0,0E0,0E0,0E0,0E0,0E0,0E0,0E0,0E0,0E0,0E0,0E0,0E0,0E0,0E0,0E0,0E0,0E0,0E0,0E0,0E0,0E0,0E0,0E0,0E0,0E0,0E0,0E0,0E0],"parents":[2147483647,0,0,1,1,2,2,3,3,4,4,5,5,6,6,7,7,8,8,9,9,10,10,11,11,15,15,16,16,17,17,18,18,19,19,20,20,21,21,22,22,23,23,24,24,26,26,27,27,28,28,29,29,30,30,31,31,32,32,33,33,34,34,35,35,36,36,37,37,38,38,39,39,40,40,42,42,44,44],"right_children":[2,4,6,8,10,12,14,16,18,20,22,24,-1,-1,-1,26,28,30,32,34,36,38,40,42,44,-1,46,48,50,52,54,56,58,60,62,64,66,68,70,72,74,-1,76,-1,78,-1,-1,-1,-1,-1,-1,-1,-1,-1,-1,-1,-1,-1,-1,-1,-1,-1,-1,-1,-1,-1,-1,-1,-1,-1,-1,-1,-1,-1,-1,-1,-1,-1,-1],"split_conditions":[9.2E1,9E0,6E0,8E0,5E0,6E0,7E0,5E0,1.24751E-2,4E1,7E0,1.4222292E2,1.5718858E0,1.8148688E0,2.2523143E0,2E-2,5E0,1.2268066E-2,1.4146313E2,3.2E1,3E0,3.5E1,1.2E1,6.118429E-2,4E0,-4.5294878E-1,2.0525476E-2,4E0,5E0,3.2305657E-3,2.3144532E-2,4E0,4E0,3E0,4E0,2.1057129E-2,7.963863E-2,1.2E1,8E0,5E0,7E0,1.2143515E0,9.241258E1,1.8480425E0,1.6265512E-2,-3.628602E-1,-4.5406222E-1,-3.1491277E-1,-4.3049666E-1,-2.6291892E-1,-3.247351E-1,1.2477213E-1,-3.610271E-1,6.502999E-1,5.6426384E-2,-1.6969469E-1,-4.178123E-2,1.4548893E-1,-4.766775E-2,-2.7456653E-1,-1.4026403E-1,4.254774E-2,1.3130993E-1,1.2040067E0,7.19154E-2,2.8688717E-1,4.978567E-1,1.7376897E-1,5.044865E-1,7.683552E-1,4.22367E-1,1.1839483E-2,4.2114612E-1,6.083407E-1,4.241899E-1,1.7509874E0,1.2668518E0,1.1921735E0,4.9018097E-1],"split_indices":[1,2,15,0,15,14,15,1,11,1,15,9,0,0,0,12,2,10,9,1,14,1,1,16,14,0,12,15,14,16,10,14,14,15,15,10,16,0,0,14,14,0,9,0,11,0,0,0,0,0,0,0,0,0,0,0,0,0,0,0,0,0,0,0,0,0,0,0,0,0,0,0,0,0,0,0,0,0,0],"split_type":[0,0,0,0,0,0,0,0,0,0,0,0,0,0,0,0,0,0,0,0,0,0,0,0,0,0,0,0,0,0,0,0,0,0,0,0,0,0,0,0,0,0,0,0,0,0,0,0,0,0,0,0,0,0,0,0,0,0,0,0,0,0,0,0,0,0,0,0,0,0,0,0,0,0,0,0,0,0,0],"sum_hessian":[1.2243E4,1.1617E4,6.26E2,5.861E3,5.756E3,5.24E2,1.02E2,5.207E3,6.54E2,2.989E3,2.767E3,3.82E2,1.42E2,7.3E1,2.9E1,2.599E3,2.608E3,1.5E1,6.39E2,2.459E3,5.3E2,1.897E3,8.7E2,3.26E2,5.6E1,1.106E3,1.493E3,6.48E2,1.96E3,6E0,9E0,5.7E2,6.9E1,1.83E3,6.29E2,3.3E1,4.97E2,1.316E3,5.81E2,1.6E2,7.1E2,2.63E2,6.3E1,3.8E1,1.8E1,1.131E3,3.62E2,5.23E2,1.25E2,1.706E3,2.54E2,2E0,4E0,6E0,3E0,7.3E1,4.97E2,3.5E1,3.4E1,2.35E2,1.595E3,5.11E2,1.18E2,2.4E1,9E0,4.43E2,5.4E1,1.165E3,1.51E2,1.02E2,4.79E2,7.4E1,8.6E1,5.18E2,1.92E2,2.2E1,4.1E1,1.6E1,2E0],"tree_param":{"num_deleted":"0","num_feature":"17","num_nodes":"79","size_leaf_vector":"1"}},{"base_weights":[4.641983E-3,-7.027081E-1,1.3434994E1,-2.8675675E0,1.4985185E0,1.2489589E1,1.8066442E1,-4.291271E-1,-3.1613352E0,-1.4042422E-1,3.3057942E0,1.1879254E1,1.4142746E0,1.6437508E0,2.0792947E0,-4.791856E-1,9.715383E-1,-3.7225697E0,-2.5962884E0,-8.866389E-1,3.2563505E0,2.7149737E0,4.5984077E0,1.3011416E1,1.0828403E1,-1.8813691E0,-4.3067735E-1,4.1718698E0,-4.893278E-1,-3.7964869E0,-2.4314036E0,-3.0437064E0,-2.4477284E0,-1.4002165E0,6.067396E-1,8.687833E0,2.9211311E0,1.9354302E0,4.416602E0,2.3062272E0,5.1154456E0,1.3705131E0,1.0671965E0,1.0364602E1,1.2258314E1,-2.3546009E-1,3.5550174E-1,1.3219501E-1,-5.0760116E-2,-9.419556E-2,5.1811665E-1,3.3680893E-2,-1.1693018E-1,-4.259506E-1,-3.6348596E-1,-2.640255E-1,-8.227642E-2,-2.838417E-1,-3.8635188E-1,-2.6544812E-1,-2.2428928E-1,-2.0300463E-1,-1.07976116E-1,1.7623964E-1,5.2984174E-2,7.711928E-2,1.1407917E0,4.1376454E-1,2.6083943E-1,1.2798433E-1,3.2714757E-1,6.331594E-1,3.6483076E-1,-2.6382884E-1,2.9167557E-1,5.5885285E-1,3.7785056E-1,1.0392411E0,2.9854432E-1,8.876961E-1,1.387348E0],"categories":[],"categories_nodes":[],"categories_segments":[],"categories_sizes":[],"default_left":[0,0,0,0,0,0,0,0,0,0,0,0,0,0,0,0,0,0,0,0,0,0,0,0,0,0,0,0,0,0,0,0,0,0,0,0,0,0,0,0,0,0,0,0,0,0,0,0,0,0,0,0,0,0,0,0,0,0,0,0,0,0,0,0,0,0,0,0,0,0,0,0,0,0,0,0,0,0,0,0,0],"id":19,"left_children":[1,3,5,7,9,11,13,15,17,19,21,23,-1,-1,-1,25,27,29,31,33,35,37,39,41,43,45,47,49,51,53,55,57,59,61,63,65,67,69,71,73,75,-1,-1,77,79,-1,-1,-1,-1,-1,-1,-1,-1,-1,-1,-1,-1,-1,-1,-1,-1,-1,-1,-1,-1,-1,-1,-1,-1,-1,-1,-1,-1,-1,-1,-1,-1,-1,-1,-1,-1],"loss_changes":[1.1563346E5,5.5105996E4,2.440914E3,4.174875E3,1.6984691E4,3.455703E2,1.0678906E2,4.4497902E1,1.6403281E3,7.6273345E3,2.0701348E3,3.0882812E2,0E0,0E0,0E0,4.047635E1,1.0489703E2,2.3967578E2,1.6510352E2,1.8929537E3,9.614614E2,2.4772998E3,1.00031445E3,1.4099414E2,6.9140625E0,5.9824066E1,7.9944435E1,4.101001E1,9.381855E0,1.6898828E2,4.620685E1,9.725E1,7.679785E1,3.6837207E2,5.523053E1,6.587539E2,1.8399756E2,1.1230884E3,8.420127E2,4.876792E2,4.1909375E2,0E0,0E0,1.5996094E0,1.17149414E2,0E0,0E0,0E0,0E0,0E0,0E0,0E0,0E0,0E0,0E0,0E0,0E0,0E0,0E0,0E0,0E0,0E0,0E0,0E0,0E0,0E0,0E0,0E0,0E0,0E0,0E0,0E0,0E0,0E0,0E0,0E0,0E0,0E0,0E0,0E0,0E0],"parents":[2147483647,0,0,1,1,2,2,3,3,4,4,5,5,6,6,7,7,8,8,9,9,10,10,11,11,15,15,16,16,17,17,18,18,19,19,20,20,21,21,22,22,23,23,24,24,25,25,26,26,27,27,28,28,29,29,30,30,31,31,32,32,33,33,34,34,35,35,36,36,37,37,38,38,39,39,40,40,43,43,44,44],"right_children":[2,4,6,8,10,12,14,16,18,20,22,24,-1,-1,-1,26,28,30,32,34,36,38,40,42,44,46,48,50,52,54,56,58,60,62,64,66,68,70,72,74,76,-1,-1,78,80,-1,-1,-1,-1,-1,-1,-1,-1,-1,-1,-1,-1,-1,-1,-1,-1,-1,-1,-1,-1,-1,-1,-1,-1,-1,-1,-1,-1,-1,-1,-1,-1,-1,-1,-1,-1],"split_conditions":[9.2E1,9E0,6E0,2.857143E-1,5E0,6E0,7E0,1.8494286E2,5E0,4E1,7E0,5E0,1.4142746E0,1.6437508E0,2.0792947E0,1.2268066E-2,1.4903446E-2,4E0,5E0,3.2E1,3E0,3.5E1,1.2E1,3.4891766E-2,3.7719727E-2,1.6959442E2,1.2850224E-2,2.0324707E-2,1.5359464E-2,3E0,1.4428229E2,4E0,1.2966321E-2,2.2E1,1.2850224E-2,1.2652745E2,4E0,1.8312974E-2,4E0,4E0,7E0,1.3705131E0,1.0671965E0,1.704781E2,1.3082243E2,-2.3546009E-1,3.5550174E-1,1.3219501E-1,-5.0760116E-2,-9.419556E-2,5.1811665E-1,3.3680893E-2,-1.1693018E-1,-4.259506E-1,-3.6348596E-1,-2.640255E-1,-8.227642E-2,-2.838417E-1,-3.8635188E-1,-2.6544812E-1,-2.2428928E-1,-2.0300463E-1,-1.07976116E-1,1.7623964E-1,5.2984174E-2,7.711928E-2,1.1407917E0,4.1376454E-1,2.6083943E-1,1.2798433E-1,3.2714757E-1,6.331594E-1,3.6483076E-1,-2.6382884E-1,2.9167557E-1,5.5885285E-1,3.7785056E-1,1.0392411E0,2.9854432E-1,8.876961E-1,1.387348E0],"split_indices":[1,2,15,4,15,14,15,8,1,1,15,14,0,0,0,10,11,15,2,1,14,1,1,10,10,8,11,10,11,2,9,15,11,1,11,9,14,11,14,14,14,0,0,8,8,0,0,0,0,0,0,0,0,0,0,0,0,0,0,0,0,0,0,0,0,0,0,0,0,0,0,0,0,0,0,0,0,0,0,0,0],"split_type":[0,0,0,0,0,0,0,0,0,0,0,0,0,0,0,0,0,0,0,0,0,0,0,0,0,0,0,0,0,0,0,0,0,0,0,0,0,0,0,0,0,0,0,0,0,0,0,0,0,0,0,0,0,0,0,0,0,0,0,0,0,0,0,0,0,0,0,0,0,0,0,0,0,0,0,0,0,0,0,0,0],"sum_hessian":[1.217E4,1.1562E4,6.08E2,5.829E3,5.733E3,5.08E2,1E2,6.27E2,5.202E3,3.007E3,2.726E3,3.77E2,1.31E2,6.7E1,3.3E1,6.06E2,2.1E1,2.607E3,2.595E3,2.466E3,5.41E2,1.873E3,8.53E2,1.76E2,2.01E2,1.9E1,5.87E2,6E0,1.5E1,2.464E3,1.43E2,6.42E2,1.953E3,1.835E3,6.31E2,3E1,5.11E2,1.286E3,5.87E2,1.58E2,6.95E2,1.32E2,4.4E1,1.58E2,4.3E1,1.8E1,1E0,2.4E1,5.63E2,1E0,5E0,7E0,8E0,6.31E2,1.833E3,1.26E2,1.7E1,5.17E2,1.25E2,9.66E2,9.87E2,6.17E2,1.218E3,3.8E1,5.93E2,8E0,2.2E1,1.02E2,4.09E2,8.64E2,4.22E2,1.66E2,4.21E2,1.7E1,1.41E2,5.11E2,1.84E2,1.57E2,1E0,1.6E1,2.7E1],"tree_param":{"num_deleted":"0","num_feature":"17","num_nodes":"81","size_leaf_vector":"1"}},{"base_weights":[1.6627092E-2,-6.449319E-1,1.2205164E1,-2.9777007E0,8.4919536E-1,1.4995599E1,1.1449193E1,-3.505167E0,-2.5781596E0,-1.0253462E-1,3.3754702E0,8.823727E-1,1.5171884E1,1.0931777E1,1.2738442E0,-3.8333964E0,-3.3373115E0,-2.837663E0,-2.3236632E0,-1.2533648E0,1.8009992E0,1.7784333E0,4.1297593E0,1.6572669E0,1.3794832E1,1.2104106E1,9.990926E0,-3.726984E-1,-4.3994412E-1,-3.6262512E-1,-3.1487663E0,-4.805288E-1,-2.8053818E0,-2.0271342E0,-2.4557292E0,-1.6622531E0,-6.26837E-1,9.833155E-1,3.4033535E0,3.9121358E0,1.4073248E0,4.3963585E0,3.335992E0,8.871471E-1,1.4575617E0,5.4570407E-1,1.2198774E1,9.671659E0,1.367861E1,-3.0119467E-1,-4.048235E-1,-2.2823071E-1,-2.8421938E-1,-1.3395673E-1,-2.6816574E-1,-2.7881348E-1,-2.1200757E-1,-1.9067545E-1,-1.1860173E-1,-3.7324948E-3,-9.152626E-2,2.2446623E-2,1.4995976E-1,5.2510065E-1,2.4501279E-1,-5.6428283E-1,5.7226855E-1,6.937451E-1,1.3089047E-1,3.6422747E-1,4.6662316E-1,4.5588374E-1,3.2718673E-1,1.1568779E0,1.4493623E0,9.785344E-1,6.612701E-1,3.4678346E-1,1.4197297E0],"categories":[],"categories_nodes":[],"categories_segments":[],"categories_sizes":[],"default_left":[0,0,0,0,0,0,0,0,0,0,0,0,0,0,0,0,0,0,0,0,0,0,0,0,0,0,0,0,0,0,0,0,0,0,0,0,0,0,0,0,0,0,0,0,0,0,0,0,0,0,0,0,0,0,0,0,0,0,0,0,0,0,0,0,0,0,0,0,0,0,0,0,0,0,0,0,0,0,0],"id":20,"left_children":[1,3,5,7,9,11,13,15,17,19,21,-1,23,25,-1,27,29,31,33,35,37,39,41,-1,43,45,47,-1,-1,-1,49,-1,51,53,55,57,59,61,63,65,67,69,71,-1,-1,-1,73,75,77,-1,-1,-1,-1,-1,-1,-1,-1,-1,-1,-1,-1,-1,-1,-1,-1,-1,-1,-1,-1,-1,-1,-1,-1,-1,-1,-1,-1,-1,-1],"loss_changes":[9.788992E4,4.0137527E4,1.1467422E3,9.3847266E2,1.6878754E4,7.5683594E0,1.916211E2,9.381641E1,1.6260938E2,1.1174543E4,2.306746E3,0E0,1.2501953E1,2.772461E2,0E0,2.2634766E1,5.8750977E1,6.680469E1,4.5893066E1,8.13354E2,2.5148936E3,4.8384863E2,2.612832E2,0E0,1.3593457E2,3.1595703E1,1.10240234E2,0E0,0E0,0E0,8.465918E1,0E0,1.750586E1,1.7911926E2,9.383545E1,2.2165283E2,2.1369403E2,4.987915E2,1.1301733E3,1.6065682E3,2.7829712E2,1.8101562E2,1.111792E1,0E0,0E0,0E0,5.352539E1,2.4082031E0,2.4912842E1,0E0,0E0,0E0,0E0,0E0,0E0,0E0,0E0,0E0,0E0,0E0,0E0,0E0,0E0,0E0,0E0,0E0,0E0,0E0,0E0,0E0,0E0,0E0,0E0,0E0,0E0,0E0,0E0,0E0,0E0],"parents":[2147483647,0,0,1,1,2,2,3,3,4,4,5,5,6,6,7,7,8,8,9,9,10,10,12,12,13,13,15,15,16,16,17,17,18,18,19,19,20,20,21,21,22,22,24,24,25,25,26,26,30,30,32,32,33,33,34,34,35,35,36,36,37,37,38,38,39,39,40,40,41,41,42,42,46,46,47,47,48,48],"right_children":[2,4,6,8,10,12,14,16,18,20,22,-1,24,26,-1,28,30,32,34,36,38,40,42,-1,44,46,48,-1,-1,-1,50,-1,52,54,56,58,60,62,64,66,68,70,72,-1,-1,-1,74,76,78,-1,-1,-1,-1,-1,-1,-1,-1,-1,-1,-1,-1,-1,-1,-1,-1,-1,-1,-1,-1,-1,-1,-1,-1,-1,-1,-1,-1,-1,-1],"split_conditions":[9.2E1,8E0,4E0,5E0,1E1,6.93908E1,6E0,4E0,6E0,3.2E1,1.2E1,8.823727E-1,1.1424311E2,5E0,1.2738442E0,1.1565102E-2,7.688009E-3,4.6452703E-3,4E0,6E0,4E1,4E0,7E0,1.6572669E0,1.17747025E2,1.2036049E2,1.0886678E-1,-3.726984E-1,-4.3994412E-1,-3.6262512E-1,3.013722E-2,-4.805288E-1,3E0,6E0,6E0,2.2E1,1.6812624E-2,1.5033975E-2,4E0,1.5435709E-2,1.4098964E-2,5E0,1.24737625E2,8.871471E-1,1.4575617E0,5.4570407E-1,6.630138E-2,7.170181E-2,1.1976625E2,-3.0119467E-1,-4.048235E-1,-2.2823071E-1,-2.8421938E-1,-1.3395673E-1,-2.6816574E-1,-2.7881348E-1,-2.1200757E-1,-1.9067545E-1,-1.1860173E-1,-3.7324948E-3,-9.152626E-2,2.2446623E-2,1.4995976E-1,5.2510065E-1,2.4501279E-1,-5.6428283E-1,5.7226855E-1,6.937451E-1,1.3089047E-1,3.6422747E-1,4.6662316E-1,4.5588374E-1,3.2718673E-1,1.1568779E0,1.4493623E0,9.785344E-1,6.612701E-1,3.4678346E-1,1.4197297E0],"split_indices":[1,1,14,0,0,9,14,0,0,1,1,0,9,14,0,11,11,11,14,0,1,14,14,0,9,8,16,0,0,0,11,0,14,1,1,1,11,11,14,11,11,14,8,0,0,0,16,16,8,0,0,0,0,0,0,0,0,0,0,0,0,0,0,0,0,0,0,0,0,0,0,0,0,0,0,0,0,0,0],"split_type":[0,0,0,0,0,0,0,0,0,0,0,0,0,0,0,0,0,0,0,0,0,0,0,0,0,0,0,0,0,0,0,0,0,0,0,0,0,0,0,0,0,0,0,0,0,0,0,0,0,0,0,0,0,0,0,0,0,0,0,0,0,0,0,0,0,0,0,0,0,0,0,0,0,0,0,0,0,0,0],"sum_hessian":[1.2138E4,1.1514E4,6.24E2,4.495E3,7.019E3,1.29E2,4.95E2,1.934E3,2.561E3,5.099E3,1.92E3,5E0,1.24E2,3.6E2,1.35E2,6.47E2,1.287E3,1.263E3,1.298E3,3.178E3,1.921E3,6.17E2,1.303E3,5.6E1,6.8E1,1.55E2,2.05E2,5.51E2,9.6E1,5.01E2,7.86E2,1.8E1,1.245E3,4.05E2,8.93E2,1.922E3,1.256E3,1.273E3,6.48E2,9E1,5.27E2,9.72E2,3.31E2,1.1E1,5.7E1,3E0,1.52E2,1.92E2,1.3E1,6.86E2,1E2,8.6E1,1.159E3,1.99E2,2.06E2,4.45E2,4.48E2,1.268E3,6.54E2,4.13E2,8.43E2,5.16E2,7.57E2,2.19E2,4.29E2,1.4E1,7.6E1,8E0,5.19E2,2.6E2,7.12E2,1.3E1,3.18E2,1.24E2,2.8E1,1.83E2,9E0,1E0,1.2E1],"tree_param":{"num_deleted":"0","num_feature":"17","num_nodes":"79","size_leaf_vector":"1"}},{"base_weights":[5.3505655E-3,-5.809375E-1,1.0908409E1,-2.3037763E0,1.1657721E0,1.0132261E1,1.4618731E1,-2.551063E0,-3.2152525E-1,-1.3334699E-1,2.5985258E0,9.581165E0,1.148939E0,1.3142987E0,1.7082154E0,-3.017259E0,-2.0856838E0,3.2420185E0,-3.6570522E-1,-7.442975E-1,2.5698533E0,2.098234E0,3.6688995E0,8.986597E0,1.1983603E1,-3.0818775E0,-1.8879371E0,-2.4358103E0,-1.9726149E0,-1.9272165E-1,4.2557976E-1,-2.183819E0,-3.2439435E-1,-1.1508869E0,4.0558982E-1,4.2504964E0,2.0497277E0,1.4868482E0,3.5018888E0,1.6739026E0,4.1048794E0,1.0672715E1,8.769187E0,3.4848252E-1,1.217944E0,-3.450853E-1,-2.95035E-1,-9.9247985E-2,-2.0265983E-1,-2.2694604E-1,-3.1644773E-1,-1.9022588E-1,-2.4440742E-1,-3.5322055E-1,-3.308318E-2,1.6032329E-1,-3.940689E-2,-2.2460416E-1,-9.972548E-2,2.3822892E-2,1.0744798E-1,4.9589252E-1,1.9259666E-1,1.5395823E-1,3.1224662E-1,8.892403E-2,2.780709E-1,5.8557385E-1,2.974628E-1,-3.2910515E-2,3.5099354E-1,4.2272592E-1,-5.6836743E-2,1.3251375E0,7.588176E-1,6.94376E-1,9.0425825E-1],"categories":[],"categories_nodes":[],"categories_segments":[],"categories_sizes":[],"default_left":[0,0,0,0,0,0,0,0,0,0,0,0,0,0,0,0,0,0,0,0,0,0,0,0,0,0,0,0,0,0,0,0,0,0,0,0,0,0,0,0,0,0,0,0,0,0,0,0,0,0,0,0,0,0,0,0,0,0,0,0,0,0,0,0,0,0,0,0,0,0,0,0,0,0,0,0,0],"id":21,"left_children":[1,3,5,7,9,11,13,15,17,19,21,23,-1,-1,-1,25,27,29,31,33,35,37,39,41,43,45,47,49,51,-1,-1,53,55,57,59,61,63,65,67,69,71,73,75,-1,-1,-1,-1,-1,-1,-1,-1,-1,-1,-1,-1,-1,-1,-1,-1,-1,-1,-1,-1,-1,-1,-1,-1,-1,-1,-1,-1,-1,-1,-1,-1,-1,-1],"loss_changes":[7.766679E4,3.4699902E4,1.6373281E3,2.8447012E3,1.0658252E4,2.7583984E2,1.5720508E2,1.1134297E3,1.02732666E2,4.9630835E3,1.4504648E3,4.2510547E2,0E0,0E0,0E0,1.8216406E2,9.757031E1,5.0125526E1,4.721041E1,1.1463878E3,4.7556445E2,1.5892812E3,7.463584E2,1.7484375E1,7.572656E1,1.0799219E2,1.5620087E1,6.8819336E1,6.0364258E1,0E0,0E0,3.3811043E1,8.457335E1,3.0246265E2,7.150144E1,2.0452881E2,2.2777515E2,9.996221E2,6.813164E2,5.785365E2,4.0845898E2,1.3806543E2,7.3953125E1,0E0,0E0,0E0,0E0,0E0,0E0,0E0,0E0,0E0,0E0,0E0,0E0,0E0,0E0,0E0,0E0,0E0,0E0,0E0,0E0,0E0,0E0,0E0,0E0,0E0,0E0,0E0,0E0,0E0,0E0,0E0,0E0,0E0,0E0],"parents":[2147483647,0,0,1,1,2,2,3,3,4,4,5,5,6,6,7,7,8,8,9,9,10,10,11,11,15,15,16,16,17,17,18,18,19,19,20,20,21,21,22,22,23,23,24,24,25,25,26,26,27,27,28,28,31,31,32,32,33,33,34,34,35,35,36,36,37,37,38,38,39,39,40,40,41,41,42,42],"right_children":[2,4,6,8,10,12,14,16,18,20,22,24,-1,-1,-1,26,28,30,32,34,36,38,40,42,44,46,48,50,52,-1,-1,54,56,58,60,62,64,66,68,70,72,74,76,-1,-1,-1,-1,-1,-1,-1,-1,-1,-1,-1,-1,-1,-1,-1,-1,-1,-1,-1,-1,-1,-1,-1,-1,-1,-1,-1,-1,-1,-1,-1,-1,-1,-1],"split_conditions":[9.2E1,9E0,6E0,8E0,5E0,6E0,7E0,5E0,1.2385154E-2,4E1,7E0,1.6216191E2,1.148939E0,1.3142987E0,1.7082154E0,4E0,5E0,1.1376953E-2,1.2268066E-2,3.2E1,4E0,3.5E1,1.2E1,1.6520182E-2,1.2125651E-2,4E0,1.2268066E-2,4E0,5E0,-1.9272165E-1,4.2557976E-1,1.3304582E-2,1.2850224E-2,3E0,4E0,2.7954102E-2,5E0,1.8312974E-2,8E0,5E0,1E1,5E0,2.0324707E-2,3.4848252E-1,1.217944E0,-3.450853E-1,-2.95035E-1,-9.9247985E-2,-2.0265983E-1,-2.2694604E-1,-3.1644773E-1,-1.9022588E-1,-2.4440742E-1,-3.5322055E-1,-3.308318E-2,1.6032329E-1,-3.940689E-2,-2.2460416E-1,-9.972548E-2,2.3822892E-2,1.0744798E-1,4.9589252E-1,1.9259666E-1,1.5395823E-1,3.1224662E-1,8.892403E-2,2.780709E-1,5.8557385E-1,2.974628E-1,-3.2910515E-2,3.5099354E-1,4.2272592E-1,-5.6836743E-2,1.3251375E0,7.588176E-1,6.94376E-1,9.0425825E-1],"split_indices":[1,2,15,0,15,14,15,1,11,1,15,8,0,0,0,15,2,10,10,1,14,1,1,10,10,0,10,15,14,0,0,11,11,15,15,10,14,11,0,14,15,14,10,0,0,0,0,0,0,0,0,0,0,0,0,0,0,0,0,0,0,0,0,0,0,0,0,0,0,0,0,0,0,0,0,0,0],"split_type":[0,0,0,0,0,0,0,0,0,0,0,0,0,0,0,0,0,0,0,0,0,0,0,0,0,0,0,0,0,0,0,0,0,0,0,0,0,0,0,0,0,0,0,0,0,0,0,0,0,0,0,0,0,0,0,0,0,0,0,0,0,0,0,0,0,0,0,0,0,0,0,0,0,0,0,0,0],"sum_hessian":[1.2148E4,1.1529E4,6.19E2,5.804E3,5.725E3,5.15E2,1.04E2,5.16E3,6.44E2,3.003E3,2.722E3,3.72E2,1.43E2,6.9E1,3.5E1,2.575E3,2.585E3,7E0,6.37E2,2.45E3,5.53E2,1.857E3,8.65E2,3.02E2,7E1,2.434E3,1.41E2,6.26E2,1.959E3,1E0,6E0,1.3E1,6.24E2,1.81E3,6.4E2,1.29E2,4.24E2,1.295E3,5.62E2,1.56E2,7.09E2,2.9E1,2.73E2,2E0,6.8E1,6.33E2,1.801E3,2E1,1.21E2,5.13E2,1.13E2,1.709E3,2.5E2,7E0,6E0,2.1E1,6.03E2,2.21E2,1.589E3,5.13E2,1.27E2,9.8E1,3.1E1,2.89E2,1.35E2,8.87E2,4.08E2,1.01E2,4.61E2,7.5E1,8.1E1,6.91E2,1.8E1,1.4E1,1.5E1,3.9E1,2.34E2],"tree_param":{"num_deleted":"0","num_feature":"17","num_nodes":"77","size_leaf_vector":"1"}},{"base_weights":[-6.124E-3,-5.283689E-1,9.795363E0,-2.0731385E0,1.0248532E0,9.08708E0,1.3167682E1,-2.507266E-1,-2.2965393E0,-1.5364936E-1,2.33185E0,8.622518E0,1.0335599E0,1.1889001E0,1.5348824E0,1.808228E-1,-4.13188E-1,-2.7226353E0,-1.871704E0,-6.80664E-1,2.261143E0,1.9021E0,3.4875412E0,8.277202E0,1.0577332E1,-1.3197373E0,9.103194E-1,-4.8544624E-1,3.5404682E-1,-2.9950005E-1,-2.5220425E0,-2.0561035E0,-1.6571658E0,-1.050605E0,3.923631E-1,7.2478204E0,1.9535977E0,3.357338E0,1.1959316E0,5.4761667E0,3.165748E0,8.788575E0,7.482717E0,1.2167337E0,7.575071E0,-1.6386922E-1,3.4321975E-2,5.953406E-1,7.2538376E-2,-4.6974786E-2,-1.9967179E-1,1.7495923E-1,-7.535126E-2,-2.3412529E-1,-3.073926E-1,-2.215148E-1,-1.7081974E-1,-1.7970042E-1,-9.895211E-2,-2.023206E-1,-9.027501E-2,-1.2183092E-1,4.440207E-2,9.4422686E-1,-2.4150087E-2,1.6477278E-1,2.8259405E-1,1.3584878E-1,3.677873E-1,-2.1648061E-1,1.347399E-1,5.623322E-1,-4.6196863E-1,4.1939425E-1,2.7139932E-1,8.434302E-1,1.1025006E0,7.715919E-1,5.551199E-1,7.756799E-1,1.970253E-1],"categories":[],"categories_nodes":[],"categories_segments":[],"categories_sizes":[],"default_left":[0,0,0,0,0,0,0,0,0,0,0,0,0,0,0,0,0,0,0,0,0,0,0,0,0,0,0,0,0,0,0,0,0,0,0,0,0,0,0,0,0,0,0,0,0,0,0,0,0,0,0,0,0,0,0,0,0,0,0,0,0,0,0,0,0,0,0,0,0,0,0,0,0,0,0,0,0,0,0,0,0],"id":22,"left_children":[1,3,5,7,9,11,13,15,17,19,21,23,-1,-1,-1,25,27,29,31,33,35,37,39,41,43,45,47,49,51,-1,53,55,57,59,61,63,65,67,69,71,73,75,77,-1,79,-1,-1,-1,-1,-1,-1,-1,-1,-1,-1,-1,-1,-1,-1,-1,-1,-1,-1,-1,-1,-1,-1,-1,-1,-1,-1,-1,-1,-1,-1,-1,-1,-1,-1,-1,-1],"loss_changes":[6.192702E4,2.7561291E4,1.3421406E3,2.3440742E3,8.823192E3,2.0610938E2,1.07572266E2,4.424409E1,9.23541E2,3.835976E3,1.34229E3,1.6693555E2,0E0,0E0,0E0,1.9057645E2,2.556295E1,1.3225586E2,9.834277E1,9.824833E2,8.1400073E2,2.0327734E3,4.5300977E2,6.627734E1,1.6083301E2,3.07957E1,1.0480114E2,9.002632E0,6.314432E1,0E0,1.404707E2,7.251953E1,1.0969653E2,2.6277258E2,5.337516E1,5.1176294E2,1.3142358E2,4.095376E2,6.829972E2,1.7602979E2,2.835703E2,5.9134766E1,1.7525879E1,0E0,6.1068115E0,0E0,0E0,0E0,0E0,0E0,0E0,0E0,0E0,0E0,0E0,0E0,0E0,0E0,0E0,0E0,0E0,0E0,0E0,0E0,0E0,0E0,0E0,0E0,0E0,0E0,0E0,0E0,0E0,0E0,0E0,0E0,0E0,0E0,0E0,0E0,0E0],"parents":[2147483647,0,0,1,1,2,2,3,3,4,4,5,5,6,6,7,7,8,8,9,9,10,10,11,11,15,15,16,16,17,17,18,18,19,19,20,20,21,21,22,22,23,23,24,24,25,25,26,26,27,27,28,28,30,30,31,31,32,32,33,33,34,34,35,35,36,36,37,37,38,38,39,39,40,40,41,41,42,42,44,44],"right_children":[2,4,6,8,10,12,14,16,18,20,22,24,-1,-1,-1,26,28,30,32,34,36,38,40,42,44,46,48,50,52,-1,54,56,58,60,62,64,66,68,70,72,74,76,78,-1,80,-1,-1,-1,-1,-1,-1,-1,-1,-1,-1,-1,-1,-1,-1,-1,-1,-1,-1,-1,-1,-1,-1,-1,-1,-1,-1,-1,-1,-1,-1,-1,-1,-1,-1,-1,-1],"split_conditions":[9.2E1,9E0,6E0,2.857143E-1,5E0,6E0,7E0,1.7387817E-2,5E0,4E1,3.5E1,1.4222292E2,1.0335599E0,1.1889001E0,1.5348824E0,4E0,1.4146313E2,2E-2,1.2588095E-2,3.2E1,3E0,2E-1,1.5033975E-2,1.0773483E2,4E0,1.3292114E2,5.7220623E1,7E0,4E0,-2.9950005E-1,2.0525476E-2,6E0,3E0,3E0,9.814453E-3,2.1057129E-2,5E0,5E0,1.4903446E-2,8E0,5E0,1.0348686E2,1.7387817E-2,1.2167337E0,1.6265512E-2,-1.6386922E-1,3.4321975E-2,5.953406E-1,7.2538376E-2,-4.6974786E-2,-1.9967179E-1,1.7495923E-1,-7.535126E-2,-2.3412529E-1,-3.073926E-1,-2.215148E-1,-1.7081974E-1,-1.7970042E-1,-9.895211E-2,-2.023206E-1,-9.027501E-2,-1.2183092E-1,4.440207E-2,9.4422686E-1,-2.4150087E-2,1.6477278E-1,2.8259405E-1,1.3584878E-1,3.677873E-1,-2.1648061E-1,1.347399E-1,5.623322E-1,-4.6196863E-1,4.1939425E-1,2.7139932E-1,8.434302E-1,1.1025006E0,7.715919E-1,5.551199E-1,7.756799E-1,1.970253E-1],"split_indices":[1,2,15,4,15,14,15,11,1,1,1,9,0,0,0,14,9,12,11,1,14,4,11,9,14,9,9,15,14,0,12,1,5,15,10,10,14,14,11,15,14,9,11,0,11,0,0,0,0,0,0,0,0,0,0,0,0,0,0,0,0,0,0,0,0,0,0,0,0,0,0,0,0,0,0,0,0,0,0,0,0],"split_type":[0,0,0,0,0,0,0,0,0,0,0,0,0,0,0,0,0,0,0,0,0,0,0,0,0,0,0,0,0,0,0,0,0,0,0,0,0,0,0,0,0,0,0,0,0,0,0,0,0,0,0,0,0,0,0,0,0,0,0,0,0,0,0,0,0,0,0,0,0,0,0,0,0,0,0,0,0,0,0,0,0],"sum_hessian":[1.2096E4,1.1485E4,6.11E2,5.758E3,5.727E3,5.08E2,1.03E2,6.29E2,5.129E3,3.012E3,2.715E3,3.76E2,1.32E2,6.9E1,3.4E1,1.72E2,4.57E2,2.558E3,2.571E3,2.473E3,5.39E2,1.981E3,7.34E2,3.24E2,5.2E1,5.6E1,1.16E2,4.18E2,3.9E1,1.079E3,1.479E3,1.378E3,1.193E3,1.839E3,6.34E2,3E1,5.09E2,6.46E2,1.335E3,1E2,6.34E2,1.91E2,1.33E2,3.2E1,2E1,4.7E1,9E0,3E0,1.13E2,4.15E2,3E0,1.7E1,2.2E1,1.118E3,3.61E2,9.42E2,4.36E2,9.85E2,2.08E2,2.41E2,1.598E3,1.9E1,6.15E2,2.3E1,7E0,3.79E2,1.3E2,9E1,5.56E2,5.7E1,1.278E3,9.9E1,1E0,1.91E2,4.43E2,1.69E2,2.2E1,1.16E2,1.7E1,1.9E1,1E0],"tree_param":{"num_deleted":"0","num_feature":"17","num_nodes":"81","size_leaf_vector":"1"}},{"base_weights":[-5.813124E-3,-4.7931194E-1,8.915099E0,-1.8679892E0,9.207778E-1,1.0818289E1,8.391587E0,-2.075134E0,-2.3236392E-1,-6.187937E-1,1.6947405E0,1.0104937E1,1.2445438E0,8.083778E0,9.788734E0,-2.4501717E0,-1.703635E0,2.3501823E0,-2.5588152E-1,-1.1074026E0,3.8255835E-1,1.025728E0,2.3794599E0,1.1507019E0,8.428194E0,7.5655518E0,9.2903227E-1,7.5741487E0,1.0511424E1,-2.6951796E-1,-2.2626348E0,-1.8593733E0,-1.4882032E0,-1.6285191E-1,3.4716263E-1,1.412654E-1,-3.7554747E-1,-7.6794857E-1,-1.4488237E0,5.388627E-1,-1.5196742E-1,-5.3508455E-1,1.8507991E0,1.2963375E0,2.9131653E0,9.88124E-1,6.4823527E0,7.6434827E0,4.634729E0,8.15063E0,3.753392E-1,1.0617282E0,2.132885E-1,-3.493633E-1,-2.1933518E-1,-3.783507E-1,-1.8387134E-1,-1.2992549E-1,-1.967728E-1,-5.9746015E-3,4.2848927E-1,-4.1101616E-2,1.235337E-1,-1.0729226E-1,-2.6025593E-2,-1.2351576E-2,-1.5820484E-1,5.975453E-2,-4.1459315E-2,1.8617002E-2,-1.3412663E-1,4.0501993E-2,-1.3558581E-1,2.5245392E-1,1.1448373E-1,3.3601308E-1,8.889717E-2,3.1454903E-1,2.2377662E-1,6.89531E-1,2.7969763E-1,8.3381903E-1,7.189545E-1,4.849678E-1,1.350094E-1,8.329517E-1,2.3758851E-1],"categories":[],"categories_nodes":[],"categories_segments":[],"categories_sizes":[],"default_left":[0,0,0,0,0,0,0,0,0,0,0,0,0,0,0,0,0,0,0,0,0,0,0,0,0,0,0,0,0,0,0,0,0,0,0,0,0,0,0,0,0,0,0,0,0,0,0,0,0,0,0,0,0,0,0,0,0,0,0,0,0,0,0,0,0,0,0,0,0,0,0,0,0,0,0,0,0,0,0,0,0,0,0,0,0,0,0],"id":23,"left_children":[1,3,5,7,9,11,13,15,17,19,21,23,-1,25,27,29,31,33,35,37,39,41,43,-1,45,47,-1,49,51,-1,53,55,57,-1,-1,59,61,63,65,67,69,71,73,75,77,-1,79,81,83,85,-1,-1,-1,-1,-1,-1,-1,-1,-1,-1,-1,-1,-1,-1,-1,-1,-1,-1,-1,-1,-1,-1,-1,-1,-1,-1,-1,-1,-1,-1,-1,-1,-1,-1,-1,-1,-1],"loss_changes":[5.1457324E4,2.2493068E4,5.2096875E2,1.967334E3,6.8656895E3,2.3975586E1,1.298789E2,7.140508E2,4.0322224E1,9.4373517E2,1.7538613E3,1.2635449E2,0E0,1.8232227E2,5.3222168E1,1.1166797E2,8.423096E1,3.2424953E1,3.0896748E1,1.490896E2,5.2968216E1,2.5005737E3,1.091084E3,0E0,6.8833984E1,3.0353516E1,0E0,2.2269897E1,3.0571777E1,0E0,1.16686035E2,5.2711914E1,9.647485E1,0E0,0E0,1.2602639E2,2.9018585E1,1.00671936E2,1.1368823E2,2.7663864E1,5.8158794E1,5.19073E2,6.01166E2,5.241437E2,1.9192676E2,0E0,1.5717834E1,2.8036133E1,5.127716E-1,8.7060547E-1,0E0,0E0,0E0,0E0,0E0,0E0,0E0,0E0,0E0,0E0,0E0,0E0,0E0,0E0,0E0,0E0,0E0,0E0,0E0,0E0,0E0,0E0,0E0,0E0,0E0,0E0,0E0,0E0,0E0,0E0,0E0,0E0,0E0,0E0,0E0,0E0,0E0],"parents":[2147483647,0,0,1,1,2,2,3,3,4,4,5,5,6,6,7,7,8,8,9,9,10,10,11,11,13,13,14,14,15,15,16,16,17,17,18,18,19,19,20,20,21,21,22,22,24,24,25,25,27,27,28,28,30,30,31,31,32,32,35,35,36,36,37,37,38,38,39,39,40,40,41,41,42,42,43,43,44,44,46,46,47,47,48,48,49,49],"right_children":[2,4,6,8,10,12,14,16,18,20,22,24,-1,26,28,30,32,34,36,38,40,42,44,-1,46,48,-1,50,52,-1,54,56,58,-1,-1,60,62,64,66,68,70,72,74,76,78,-1,80,82,84,86,-1,-1,-1,-1,-1,-1,-1,-1,-1,-1,-1,-1,-1,-1,-1,-1,-1,-1,-1,-1,-1,-1,-1,-1,-1,-1,-1,-1,-1,-1,-1,-1,-1,-1,-1,-1,-1],"split_conditions":[9.2E1,9E0,4E0,8E0,6E0,1.722709E2,6.630138E-2,5E0,1.2385154E-2,2.4E1,1E1,4.158341E-3,1.2445438E0,6E0,1.3340112E2,2E-2,1.2966321E-2,3.1575619E-3,1.3578189E2,5E0,1.2811978E2,3.2E1,1.2E1,1.1507019E0,1.462016E2,1.5751933E2,9.2903227E-1,1.3252176E2,1.27714E2,-2.6951796E-1,4E0,4.6452703E-3,2.2653522E-2,-1.6285191E-1,3.4716263E-1,1.20458014E-1,1.932629E2,4E0,3E0,1.12814784E-1,1.414215E-2,1.6812624E-2,8E0,4E0,7E0,9.88124E-1,1.3292114E2,5E0,1.590063E-2,1.0477896E2,3.753392E-1,1.0617282E0,2.132885E-1,-3.493633E-1,-2.1933518E-1,-3.783507E-1,-1.8387134E-1,-1.2992549E-1,-1.967728E-1,-5.9746015E-3,4.2848927E-1,-4.1101616E-2,1.235337E-1,-1.0729226E-1,-2.6025593E-2,-1.2351576E-2,-1.5820484E-1,5.975453E-2,-4.1459315E-2,1.8617002E-2,-1.3412663E-1,4.0501993E-2,-1.3558581E-1,2.5245392E-1,1.1448373E-1,3.3601308E-1,8.889717E-2,3.1454903E-1,2.2377662E-1,6.89531E-1,2.7969763E-1,8.3381903E-1,7.189545E-1,4.849678E-1,1.350094E-1,8.329517E-1,2.3758851E-1],"split_indices":[1,2,14,0,0,8,16,1,11,1,0,16,0,14,8,12,11,16,8,0,9,1,1,0,8,9,0,8,9,0,0,11,12,0,0,16,8,14,14,11,11,11,0,14,14,0,9,14,11,9,0,0,0,0,0,0,0,0,0,0,0,0,0,0,0,0,0,0,0,0,0,0,0,0,0,0,0,0,0,0,0,0,0,0,0,0,0],"split_type":[0,0,0,0,0,0,0,0,0,0,0,0,0,0,0,0,0,0,0,0,0,0,0,0,0,0,0,0,0,0,0,0,0,0,0,0,0,0,0,0,0,0,0,0,0,0,0,0,0,0,0,0,0,0,0,0,0,0,0,0,0,0,0,0,0,0,0,0,0,0,0,0,0,0,0,0,0,0,0,0,0,0,0,0,0,0,0],"sum_hessian":[1.218E4,1.1567E4,6.13E2,5.807E3,5.76E3,1.28E2,4.85E2,5.154E3,6.53E2,1.927E3,3.833E3,9.4E1,3.4E1,4.03E2,8.2E1,2.562E3,2.592E3,5E0,6.48E2,1.295E3,6.32E2,1.94E3,1.893E3,4.8E1,4.6E1,2.87E2,1.16E2,2.3E1,5.9E1,1.105E3,1.457E3,1.5E3,1.092E3,1E0,4E0,1.5E2,4.98E2,6.51E2,6.44E2,4.89E2,1.43E2,6.71E2,1.269E3,6.26E2,1.267E3,2.4E1,2.2E1,2.78E2,9E0,1.9E1,4E0,5.8E1,1E0,7.5E1,1.382E3,1.4E1,1.486E3,7.86E2,3.06E2,1.44E2,6E0,4.88E2,1E1,4.06E2,2.45E2,5.9E1,5.85E2,4.61E2,2.8E1,1.12E2,3.1E1,3.13E2,3.58E2,6.48E2,6.21E2,1.02E2,5.24E2,9.4E2,3.27E2,1.9E1,3E0,1.03E2,1.75E2,8E0,1E0,1.8E1,1E0],"tree_param":{"num_deleted":"0","num_feature":"17","num_nodes":"87","size_leaf_vector":"1"}},{"base_weights":[1.0687304E-2,-4.1802722E-1,7.9608736E0,-1.6801547E0,8.5363305E-1,7.3354535E0,1.0799548E1,-1.8698688E0,-1.5893832E-1,-1.3190344E-1,1.9354292E0,7.343115E0,1.7102508E-1,9.661104E-1,1.2784556E0,-2.2041714E0,-1.5405197E0,1.8769952E0,-1.9740465E-1,-5.7918155E-1,1.8774096E0,1.5061908E0,2.8695173E0,7.188107E0,8.313435E0,-2.2499995E0,-1.3273607E0,-1.6661649E0,-1.3091983E0,-1.113526E0,4.172157E0,-1.4949153E-1,-1.457478E-1,-8.461459E-1,2.1660113E-1,4.0545216E0,1.7206645E0,1.3268777E0,4.5179683E-1,1.2227613E0,3.1220732E0,7.567541E0,6.4647207E0,8.914973E0,6.125949E0,-2.531154E-1,-2.1506946E-1,-1.4572325E-1,-1.5646975E-2,-3.445694E-1,-1.64802E-1,-1.0950948E-1,-1.8024781E-1,2.498703E-2,-2.5602123E-1,5.3048146E-1,-1.3118935E-1,-2.6926387E-2,8.073627E-2,-5.5927247E-2,-1.2613869E-1,6.3205147E-3,8.798906E-2,7.6900905E-1,1.9163169E-1,-1.6323654E-2,1.805581E-1,7.453521E-2,1.9235192E-1,3.8210538E-1,-1.265996E-1,2.7959806E-1,4.2692518E-1,4.2322442E-1,7.6477206E-1,6.586848E-1,3.305684E-1,9.076373E-1,3.4685108E-1,1.5122643E-1,6.3197875E-1],"categories":[],"categories_nodes":[],"categories_segments":[],"categories_sizes":[],"default_left":[0,0,0,0,0,0,0,0,0,0,0,0,0,0,0,0,0,0,0,0,0,0,0,0,0,0,0,0,0,0,0,0,0,0,0,0,0,0,0,0,0,0,0,0,0,0,0,0,0,0,0,0,0,0,0,0,0,0,0,0,0,0,0,0,0,0,0,0,0,0,0,0,0,0,0,0,0,0,0,0,0],"id":24,"left_children":[1,3,5,7,9,11,13,15,17,19,21,23,-1,-1,-1,25,27,29,31,33,35,37,39,41,43,45,47,49,51,53,55,57,-1,59,61,63,65,67,-1,69,71,73,75,77,79,-1,-1,-1,-1,-1,-1,-1,-1,-1,-1,-1,-1,-1,-1,-1,-1,-1,-1,-1,-1,-1,-1,-1,-1,-1,-1,-1,-1,-1,-1,-1,-1,-1,-1,-1,-1],"loss_changes":[4.1367188E4,1.8484586E4,1.02328125E3,1.667791E3,6.116756E3,9.505859E0,1.2506641E2,5.6241797E2,5.0648705E1,2.6999485E3,1.0922666E3,1.709961E1,0E0,0E0,0E0,9.9399414E1,7.315283E1,8.7010574E1,3.7878143E1,5.2216223E2,1.7968799E2,1.0071406E3,3.5385498E2,7.404492E1,2.960254E1,6.2123047E1,1.9388443E1,4.8438477E1,9.487329E1,1.2474163E1,5.0440193E1,7.001163E1,0E0,2.184784E2,6.2823387E1,2.651126E2,8.220154E1,6.1338354E2,0E0,7.549537E2,2.667583E2,4.465039E1,4.0340332E1,1.0713379E1,5.646057E0,0E0,0E0,0E0,0E0,0E0,0E0,0E0,0E0,0E0,0E0,0E0,0E0,0E0,0E0,0E0,0E0,0E0,0E0,0E0,0E0,0E0,0E0,0E0,0E0,0E0,0E0,0E0,0E0,0E0,0E0,0E0,0E0,0E0,0E0,0E0,0E0],"parents":[2147483647,0,0,1,1,2,2,3,3,4,4,5,5,6,6,7,7,8,8,9,9,10,10,11,11,15,15,16,16,17,17,18,18,19,19,20,20,21,21,22,22,23,23,24,24,25,25,26,26,27,27,28,28,29,29,30,30,31,31,33,33,34,34,35,35,36,36,37,37,39,39,40,40,41,41,42,42,43,43,44,44],"right_children":[2,4,6,8,10,12,14,16,18,20,22,24,-1,-1,-1,26,28,30,32,34,36,38,40,42,44,46,48,50,52,54,56,58,-1,60,62,64,66,68,-1,70,72,74,76,78,80,-1,-1,-1,-1,-1,-1,-1,-1,-1,-1,-1,-1,-1,-1,-1,-1,-1,-1,-1,-1,-1,-1,-1,-1,-1,-1,-1,-1,-1,-1,-1,-1,-1,-1,-1,-1],"split_conditions":[9.2E1,9E0,6E0,8E0,5E0,1.6405254E2,7E0,5E0,1.24751E-2,4E1,7E0,1.4222292E2,1.7102508E-1,9.661104E-1,1.2784556E0,4E0,1.5359464E-2,1.6796876E-2,7E0,3.2E1,1.2402344E-2,5.1E1,1.7480468E-2,1.0773483E2,1.6125528E-2,4E0,1.4630035E2,4.6452703E-3,2.2653522E-2,1.4303027E2,1.2385392E2,6E0,-1.457478E-1,1.6179E-2,4E0,1.4118436E-2,1.430664E-2,1.8174283E-2,4.5179683E-1,8E0,1.6E1,1.5771484E-2,3.3150885E-2,1.6133284E2,1.4646884E2,-2.531154E-1,-2.1506946E-1,-1.4572325E-1,-1.5646975E-2,-3.445694E-1,-1.64802E-1,-1.0950948E-1,-1.8024781E-1,2.498703E-2,-2.5602123E-1,5.3048146E-1,-1.3118935E-1,-2.6926387E-2,8.073627E-2,-5.5927247E-2,-1.2613869E-1,6.3205147E-3,8.798906E-2,7.6900905E-1,1.9163169E-1,-1.6323654E-2,1.805581E-1,7.453521E-2,1.9235192E-1,3.8210538E-1,-1.265996E-1,2.7959806E-1,4.2692518E-1,4.2322442E-1,7.6477206E-1,6.586848E-1,3.305684E-1,9.076373E-1,3.4685108E-1,1.5122643E-1,6.3197875E-1],"split_indices":[1,2,15,0,15,9,15,1,11,1,15,9,0,0,0,15,11,10,15,1,10,1,10,9,11,0,9,11,12,9,9,15,0,11,15,11,10,11,0,15,1,10,11,9,9,0,0,0,0,0,0,0,0,0,0,0,0,0,0,0,0,0,0,0,0,0,0,0,0,0,0,0,0,0,0,0,0,0,0,0,0],"split_type":[0,0,0,0,0,0,0,0,0,0,0,0,0,0,0,0,0,0,0,0,0,0,0,0,0,0,0,0,0,0,0,0,0,0,0,0,0,0,0,0,0,0,0,0,0,0,0,0,0,0,0,0,0,0,0,0,0,0,0,0,